/**
 * This software is released as part of the Pumpernickel project.
 * 
 * All com.pump resources in the Pumpernickel project are distributed under the
 * MIT License:
 * https://github.com/mickleness/pumpernickel/raw/master/License.txt
 * 
 * More information about the Pumpernickel project is available here:
 * https://mickleness.github.io/pumpernickel/
 */
package com.pump.showcase.resourcegenerator;

import java.awt.AlphaComposite;
import java.awt.BasicStroke;
import java.awt.Color;
import java.awt.Component;
import java.awt.Graphics;
import java.awt.Graphics2D;
import java.awt.LinearGradientPaint;
import java.awt.MultipleGradientPaint.ColorSpaceType;
import java.awt.MultipleGradientPaint.CycleMethod;
import java.awt.RenderingHints;
import java.awt.Shape;
import java.awt.geom.AffineTransform;
import java.awt.geom.GeneralPath;
import java.awt.geom.Point2D;
import java.awt.geom.Rectangle2D;
import java.awt.geom.RoundRectangle2D;
import java.io.File;
import java.io.OutputStream;

import javax.swing.Icon;

import com.pump.graphics.vector.VectorImage;

public class VectorImageDemoResourceGenerator extends DemoResourceGenerator {

	@Override
	public void run(DemoResourceContext context) throws Exception {

		File jvgDir = context.getFile("resources/com/pump/showcase/demo/jvg"
				.replace("/", File.separator));
		context.indexDirectory(jvgDir);

		Icon[] icons = new Icon[] { new InhabitantsPiglet(704, 800),
				new KindergartenTeacher(1371, 1136), new HardDrive(361, 518),
				new FlashDrive(800, 800) };
		for (Icon icon : icons) {
			VectorImage img = new VectorImage();
			Graphics2D g = img.createGraphics();
			icon.paintIcon(null, g, 0, 0);
			g.dispose();

			File file = new File(jvgDir, icon.getClass().getSimpleName() + "."
					+ VectorImage.FILE_EXTENSION.toLowerCase());
			try (OutputStream out = context.createFileOutputStream(file)) {
				img.save(out);
			}
			System.out.println("Wrote: " + file.getAbsolutePath());
		}

		context.removeOldFiles(jvgDir);
	}

}

/**
 * This class is based on ouput from
 * <a href="http://ebourg.github.io/flamingo-svg-transcoder/">Flamingo SVG
 * transcoder</a>.
 * <p>
 * The source image is available as public domain from <a href=
 * "https://openclipart.org/detail/207926/inhabitants-piglet">openclipart</a>.
 */
class InhabitantsPiglet implements Icon {

	/** The width of this icon. */
	private int width;

	/** The height of this icon. */
	private int height;

	/**
	 * Creates a new transcoded SVG image.
	 */
	public InhabitantsPiglet(int width, int height) {
		this.width = width;
		this.height = height;
	}

	@Override
	public int getIconHeight() {
		return height;
	}

	@Override
	public int getIconWidth() {
		return width;
	}

	@Override
	public void paintIcon(Component c, Graphics g, int x, int y) {
		Graphics2D g2 = (Graphics2D) g.create();
		double coef = Math.min((double) width / (double) 1,
				(double) height / (double) 1);

		g2.setRenderingHint(RenderingHints.KEY_ANTIALIASING,
				RenderingHints.VALUE_ANTIALIAS_ON);
		g2.scale(coef, coef);
		paint(g2);
		g2.dispose();
	}

	/**
	 * Paints the transcoded SVG image on the specified graphics context.
	 * 
	 * @param g
	 *            Graphics context.
	 */
	private static void paint(Graphics2D g) {
		Shape shape = null;

		float origAlpha = 1.0f;

		java.util.LinkedList<AffineTransform> transformations = new java.util.LinkedList<AffineTransform>();

		//
		transformations.push(g.getTransform());
		g.transform(new AffineTransform(0.024415255f, 0, 0, 0.024415255f,
				0.060134757f, 0));

		// _0
		transformations.push(g.getTransform());
		g.transform(new AffineTransform(1.25f, 0, 0, -1.25f, 0, 40.958f));

		// _0_0

		// _0_0_0

		// _0_0_0_0
		shape = new GeneralPath();
		((GeneralPath) shape).moveTo(20.508, 4.001);
		((GeneralPath) shape).curveTo(20.559, 4.184, 20.625, 4.36, 20.706999,
				4.52);
		((GeneralPath) shape).curveTo(20.866999, 4.891, 21.012, 5.079,
				21.144999, 5.079);
		((GeneralPath) shape).curveTo(21.491999, 5.106, 21.878998, 5.184,
				22.304998, 5.321);
		((GeneralPath) shape).curveTo(22.651999, 5.454, 22.839998, 5.505,
				22.866999, 5.481);
		((GeneralPath) shape).curveTo(23.026999, 5.3719997, 22.839998, 5.173,
				22.304998, 4.88);
		((GeneralPath) shape).lineTo(23.065998, 4.919);
		((GeneralPath) shape).curveTo(22.823997, 4.3050003, 22.558998,
				3.8910003, 22.265999, 3.6800003);
		((GeneralPath) shape).curveTo(21.945, 3.4660003, 21.612999, 3.3990004,
				21.265999, 3.4810004);
		((GeneralPath) shape).lineTo(20.508, 4.0010004);
		((GeneralPath) shape).closePath();

		g.setPaint(new Color(0xBA7763));
		g.fill(shape);

		// _0_0_0_1
		shape = new GeneralPath();
		((GeneralPath) shape).moveTo(20.625, 4.719);
		((GeneralPath) shape).lineTo(21.508, 4.3599997);
		((GeneralPath) shape).curveTo(22.144999, 4.2269998, 22.664, 4.4149995,
				23.066, 4.9189997);
		((GeneralPath) shape).curveTo(22.824, 4.305, 22.559, 3.8909998, 22.266,
				3.6799998);
		((GeneralPath) shape).curveTo(21.945002, 3.4659998, 21.613, 3.399,
				21.266, 3.481);
		((GeneralPath) shape).lineTo(20.547, 4.079);
		((GeneralPath) shape).lineTo(20.625, 4.719);
		((GeneralPath) shape).closePath();

		g.setPaint(new Color(0x9E6554));
		g.fill(shape);

		// _0_0_0_2
		shape = new GeneralPath();
		((GeneralPath) shape).moveTo(14.027, 9.2);
		((GeneralPath) shape).curveTo(13.574, 10.051, 13.332001, 10.559, 13.305,
				10.719);
		((GeneralPath) shape).curveTo(13.254001, 11.227, 13.6640005, 11.505,
				14.547, 11.559);
		((GeneralPath) shape).curveTo(15.934, 11.641, 17.051, 11.212, 17.906,
				10.278);
		((GeneralPath) shape).curveTo(18.625, 9.481, 18.891, 8.665, 18.707,
				7.8409996);
		((GeneralPath) shape).curveTo(18.547, 7.0669994, 18.387001, 6.6139994,
				18.227001, 6.4809995);
		((GeneralPath) shape).lineTo(18.746, 6.1609993);
		((GeneralPath) shape).curveTo(19.227001, 5.945999, 19.812, 5.7589993,
				20.508, 5.597999);
		((GeneralPath) shape).lineTo(22.144999, 5.199999);
		((GeneralPath) shape).curveTo(21.984, 5.199999, 21.824, 5.183999,
				21.663998, 5.160999);
		((GeneralPath) shape).curveTo(21.292997, 5.105999, 21.050997, 4.9729986,
				20.944998, 4.758999);
		((GeneralPath) shape).curveTo(20.757998, 4.414999, 20.733997, 4.105999,
				20.866999, 3.840999);
		((GeneralPath) shape).curveTo(19.905998, 3.9729989, 18.772999, 4.199999,
				17.464998, 4.519999);
		((GeneralPath) shape).curveTo(14.905998, 5.133999, 13.690998, 5.8519993,
				13.823998, 6.6799994);
		((GeneralPath) shape).curveTo(14.011998, 7.0279994, 14.159999, 7.320999,
				14.265999, 7.5589995);
		((GeneralPath) shape).curveTo(14.425999, 8.011999, 14.347999, 8.559,
				14.0269985, 9.2);
		((GeneralPath) shape).closePath();

		g.setPaint(new Color(0xE8A09B));
		g.fill(shape);

		// _0_0_0_3
		shape = new GeneralPath();
		((GeneralPath) shape).moveTo(18.426, 5.118);
		((GeneralPath) shape).lineTo(19.027, 5.239);
		((GeneralPath) shape).curveTo(19.48, 5.2939997, 19.801, 5.278,
				19.984001, 5.2);
		((GeneralPath) shape).curveTo(20.281002, 5.067, 20.707, 4.7469997,
				21.266, 4.239);
		((GeneralPath) shape).curveTo(21.852001, 3.6799998, 22.105001,
				3.3209999, 22.027, 3.1609998);
		((GeneralPath) shape).curveTo(21.867, 2.9189997, 21.441, 3.0789998,
				20.746, 3.6409998);
		((GeneralPath) shape).lineTo(21.348, 2.6799998);
		((GeneralPath) shape).curveTo(20.546999, 2.415, 19.918, 2.3869998,
				19.465, 2.5979998);
		((GeneralPath) shape).curveTo(19.172, 2.7079997, 18.934, 2.919, 18.746,
				3.2389998);
		((GeneralPath) shape).lineTo(18.508, 3.6799998);
		((GeneralPath) shape).lineTo(18.425999, 5.118);
		((GeneralPath) shape).closePath();

		g.setPaint(new Color(0xBA7763));
		g.fill(shape);

		// _0_0_0_4
		shape = new GeneralPath();
		((GeneralPath) shape).moveTo(19.305, 4.399);
		((GeneralPath) shape).lineTo(19.586, 3.598);
		((GeneralPath) shape).curveTo(19.934, 3.04, 20.52, 2.7350001, 21.348,
				2.68);
		((GeneralPath) shape).curveTo(20.546999, 2.415, 19.918, 2.387, 19.465,
				2.598);
		((GeneralPath) shape).curveTo(19.172, 2.708, 18.934, 2.9190001, 18.746,
				3.239);
		((GeneralPath) shape).lineTo(18.508, 3.68);
		((GeneralPath) shape).lineTo(18.508, 4.118);
		((GeneralPath) shape).lineTo(19.305, 4.399);
		((GeneralPath) shape).closePath();

		g.setPaint(new Color(0x9E6554));
		g.fill(shape);

		// _0_0_0_5
		shape = new GeneralPath();
		((GeneralPath) shape).moveTo(14.547, 9.641);
		((GeneralPath) shape).lineTo(14.305, 10.801);
		((GeneralPath) shape).curveTo(14.945001, 12.344, 15.734, 12.891, 16.668,
				12.438);
		((GeneralPath) shape).curveTo(17.465, 12.094, 18.0, 11.399, 18.265999,
				10.36);
		((GeneralPath) shape).curveTo(18.800999, 8.278, 19.785, 6.305, 21.227,
				4.4379997);
		((GeneralPath) shape).curveTo(21.254, 4.415, 21.078, 4.305, 20.706999,
				4.1179996);
		((GeneralPath) shape).curveTo(19.933998, 3.6649995, 19.210999,
				3.6409996, 18.546999, 4.0399995);
		((GeneralPath) shape).curveTo(18.491999, 4.3329997, 18.370998,
				4.6799994, 18.188, 5.0789995);
		((GeneralPath) shape).curveTo(17.785, 5.9069996, 17.215, 6.5979996,
				16.465, 7.1609993);
		((GeneralPath) shape).curveTo(15.508, 7.879999, 14.867001, 8.707999,
				14.547, 9.640999);
		((GeneralPath) shape).closePath();

		g.setPaint(new Color(0xFFBDBA));
		g.fill(shape);

		// _0_0_0_6
		shape = new GeneralPath();
		((GeneralPath) shape).moveTo(15.266, 8.321);
		((GeneralPath) shape).lineTo(15.026999, 9.801001);
		((GeneralPath) shape).curveTo(15.026999, 9.907001, 15.266, 10.184001,
				15.745999, 10.641001);
		((GeneralPath) shape).curveTo(16.227, 11.067, 16.772999, 11.493001,
				17.387, 11.919001);
		((GeneralPath) shape).curveTo(17.839998, 11.415001, 18.133, 10.891001,
				18.265999, 10.360001);
		((GeneralPath) shape).curveTo(18.48, 9.426001, 18.890999, 8.360001,
				19.508, 7.1610007);
		((GeneralPath) shape).curveTo(19.133, 7.212001, 18.866999, 7.067001,
				18.706999, 6.719001);
		((GeneralPath) shape).curveTo(18.574, 6.3720007, 18.585999, 5.946001,
				18.745998, 5.4380007);
		((GeneralPath) shape).curveTo(18.984, 4.8010006, 19.464998, 4.278001,
				20.187998, 3.8800006);
		((GeneralPath) shape).curveTo(19.811998, 3.7740006, 19.425999,
				3.7740006, 19.026999, 3.8800006);
		((GeneralPath) shape).lineTo(18.546999, 4.0400004);
		((GeneralPath) shape).curveTo(18.491999, 4.3330007, 18.370998,
				4.6800003, 18.188, 5.0790005);
		((GeneralPath) shape).curveTo(17.785, 5.9070005, 17.215, 6.5980005,
				16.465, 7.1610003);
		((GeneralPath) shape).curveTo(16.121, 7.426, 15.719, 7.813, 15.266,
				8.321);
		((GeneralPath) shape).closePath();

		g.setPaint(new Color(0xE8A09B));
		g.fill(shape);

		// _0_0_0_7
		shape = new GeneralPath();
		((GeneralPath) shape).moveTo(18.266, 29.598);
		((GeneralPath) shape).curveTo(18.348001, 29.227, 18.305, 28.800999,
				18.145, 28.321);
		((GeneralPath) shape).curveTo(17.773, 27.359999, 16.934, 26.598, 15.625,
				26.039999);
		((GeneralPath) shape).curveTo(14.586, 25.587, 13.293, 26.172998, 11.746,
				27.800999);
		((GeneralPath) shape).lineTo(9.746, 30.359999);
		((GeneralPath) shape).lineTo(10.348001, 31.039999);
		((GeneralPath) shape).curveTo(10.984, 31.492998, 11.891001, 31.758999,
				13.066, 31.841);
		((GeneralPath) shape).curveTo(14.824, 31.946, 16.227, 31.614, 17.265999,
				30.841);
		((GeneralPath) shape).curveTo(17.772999, 30.438, 18.105, 30.028,
				18.265999, 29.598);
		((GeneralPath) shape).closePath();

		g.fill(shape);

		// _0_0_0_8
		shape = new GeneralPath();
		((GeneralPath) shape).moveTo(1.145, 7.001);
		((GeneralPath) shape).curveTo(1.6800001, 6.8129997, 1.824, 6.641, 1.586,
				6.481);
		((GeneralPath) shape).curveTo(1.2379999, 6.184, 0.82399994, 6.184,
				0.34799993, 6.481);
		((GeneralPath) shape).curveTo(0.05099994, 6.641, -0.055000067, 6.946,
				0.02699992, 7.399);
		((GeneralPath) shape).curveTo(0.05099992, 7.188, 0.17199992, 7.04,
				0.38699993, 6.9620004);
		((GeneralPath) shape).curveTo(0.65199995, 6.852, 0.9059999, 6.8680005,
				1.145, 7.0010004);
		((GeneralPath) shape).closePath();

		g.setPaint(new Color(0xFFBDBA));
		g.fill(shape);

		// _0_0_0_9
		shape = new GeneralPath();
		((GeneralPath) shape).moveTo(2.227, 7.438);
		((GeneralPath) shape).curveTo(2.199, 7.426, 2.172, 7.4110003, 2.145,
				7.399);
		((GeneralPath) shape).lineTo(1.9449999, 7.321);
		((GeneralPath) shape).curveTo(2.188, 7.6410003, 2.1599998, 7.852, 1.867,
				7.962);
		((GeneralPath) shape).curveTo(1.707, 8.04, 1.5699999, 8.012, 1.4649999,
				7.88);
		((GeneralPath) shape).curveTo(1.387, 7.747, 1.3709999, 7.6140003,
				1.4259999, 7.481);
		((GeneralPath) shape).curveTo(1.6089998, 7.204, 1.879, 7.1879997,
				2.2269998, 7.4379997);
		((GeneralPath) shape).closePath();
		((GeneralPath) shape).moveTo(0.94500005, 8.360001);
		((GeneralPath) shape).curveTo(1.1600001, 8.626, 1.4260001, 8.747001,
				1.746, 8.719001);
		((GeneralPath) shape).curveTo(2.387, 8.696001, 2.652, 8.360001, 2.547,
				7.719001);
		((GeneralPath) shape).lineTo(2.547, 7.700001);
		((GeneralPath) shape).curveTo(2.625, 7.8010006, 2.73, 7.942001,
				2.8669999, 8.118001);
		((GeneralPath) shape).curveTo(3.0509999, 8.360001, 3.2269998, 8.493001,
				3.3869998, 8.520001);
		((GeneralPath) shape).curveTo(3.5979998, 8.548001, 3.8119998, 8.426002,
				4.027, 8.161001);
		((GeneralPath) shape).curveTo(4.238, 7.8950014, 4.32, 7.598001, 4.266,
				7.2780013);
		((GeneralPath) shape).curveTo(4.16, 6.5590014, 3.4799998, 6.2000012,
				2.2269998, 6.2000012);
		((GeneralPath) shape).curveTo(1.2109997, 6.227001, 0.6799997, 6.6530013,
				0.62499976, 7.4810014);
		((GeneralPath) shape).curveTo(0.59799975, 7.8290014, 0.7069998,
				8.118001, 0.94499975, 8.360002);
		((GeneralPath) shape).closePath();

		g.fill(shape);

		// _0_0_0_10
		shape = new GeneralPath();
		((GeneralPath) shape).moveTo(3.387, 8.52);
		((GeneralPath) shape).curveTo(3.598, 8.548, 3.812, 8.426001, 4.027,
				8.161);
		((GeneralPath) shape).curveTo(4.238, 7.8950005, 4.32, 7.598, 4.266,
				7.2780004);
		((GeneralPath) shape).curveTo(4.16, 6.5590005, 3.4799998, 6.2000003,
				2.2269998, 6.2000003);
		((GeneralPath) shape).curveTo(1.6129997, 6.227, 1.1599997, 6.4150004,
				0.86699975, 6.7590003);
		((GeneralPath) shape).lineTo(1.0659997, 6.6410003);
		((GeneralPath) shape).curveTo(1.4379997, 6.372, 1.8789997, 6.2660003,
				2.3869996, 6.321);
		((GeneralPath) shape).curveTo(2.8669996, 6.372, 3.1329997, 6.5750003,
				3.1879997, 6.919);
		((GeneralPath) shape).curveTo(3.2379997, 7.184, 3.1879997, 7.454,
				3.0269997, 7.7190003);
		((GeneralPath) shape).lineTo(2.7849996, 8.04);
		((GeneralPath) shape).curveTo(2.9999995, 8.36, 3.1989996, 8.5199995,
				3.3869996, 8.5199995);
		((GeneralPath) shape).closePath();

		g.setPaint(new Color(0xE8A09B));
		g.fill(shape);

		// _0_0_0_11
		shape = new GeneralPath();
		((GeneralPath) shape).moveTo(18.387, 16.919);
		((GeneralPath) shape).curveTo(17.397999, 16.579, 16.758, 15.966001,
				16.464998, 15.079);
		((GeneralPath) shape).curveTo(16.171999, 14.200001, 16.198997, 12.653,
				16.546999, 10.438001);
		((GeneralPath) shape).curveTo(16.73, 8.278001, 16.32, 6.6920004,
				15.304999, 5.680001);
		((GeneralPath) shape).curveTo(14.32, 4.692001, 13.1449995, 3.9620008,
				11.785, 3.481001);
		((GeneralPath) shape).curveTo(10.266, 2.9460008, 8.785, 2.852001, 7.348,
				3.200001);
		((GeneralPath) shape).curveTo(8.73, 2.587001, 10.211, 2.344001, 11.785,
				2.481001);
		((GeneralPath) shape).curveTo(13.051, 2.5910008, 14.164, 2.934001,
				15.125, 3.520001);
		((GeneralPath) shape).curveTo(12.926001, 2.106001, 10.414, 1.9580009,
				7.586, 3.079001);
		((GeneralPath) shape).curveTo(4.281, 4.4380007, 2.7339997, 7.067001,
				2.9450002, 10.962001);
		((GeneralPath) shape).curveTo(3.1050003, 13.52, 4.254, 15.946001, 6.387,
				18.239);
		((GeneralPath) shape).curveTo(7.48, 19.387001, 8.547, 20.278, 9.586,
				20.919);
		((GeneralPath) shape).curveTo(16.613, 26.884, 19.547, 25.548, 18.387001,
				16.919);
		((GeneralPath) shape).closePath();

		g.setPaint(new Color(0xFFBDBA));
		g.fill(shape);

		// _0_0_0_12
		shape = new GeneralPath();
		((GeneralPath) shape).moveTo(18.387, 16.919);
		((GeneralPath) shape).curveTo(18.754, 17.059, 19.054998, 17.032001,
				19.285, 16.841002);
		((GeneralPath) shape).curveTo(19.52, 16.653002, 19.605, 16.559002,
				19.546999, 16.559002);
		((GeneralPath) shape).curveTo(19.331999, 16.227001, 19.144999,
				15.989002, 18.984, 15.8410015);
		((GeneralPath) shape).curveTo(18.719, 15.5980015, 18.441, 15.028002,
				18.144999, 14.118002);
		((GeneralPath) shape).curveTo(17.984, 13.587002, 18.133, 12.161002,
				18.585999, 9.8410015);
		((GeneralPath) shape).curveTo(18.663998, 7.4380016, 17.718998,
				5.4810014, 15.745998, 3.9620013);
		((GeneralPath) shape).curveTo(15.675999, 3.9030013, 15.601998,
				3.8520014, 15.5269985, 3.8010013);
		((GeneralPath) shape).lineTo(15.124998, 3.5200014);
		((GeneralPath) shape).curveTo(14.163998, 2.9340014, 13.050999,
				2.5870013, 11.784998, 2.4810014);
		((GeneralPath) shape).curveTo(10.210998, 2.3440013, 8.733997, 2.5870013,
				7.347998, 3.2000012);
		((GeneralPath) shape).curveTo(8.784998, 2.8520012, 10.265998, 2.9460013,
				11.784998, 3.4810011);
		((GeneralPath) shape).curveTo(13.144998, 3.962001, 14.319998, 4.6920013,
				15.304998, 5.6800013);
		((GeneralPath) shape).curveTo(16.319998, 6.6920013, 16.734, 8.278002,
				16.546999, 10.438002);
		((GeneralPath) shape).curveTo(16.199, 12.653002, 16.171999, 14.200002,
				16.464998, 15.079001);
		((GeneralPath) shape).curveTo(16.757998, 15.9660015, 17.397999,
				16.579002, 18.387, 16.919);
		((GeneralPath) shape).closePath();

		g.setPaint(new Color(0xE8A09B));
		g.fill(shape);

		// _0_0_0_13
		shape = new GeneralPath();
		((GeneralPath) shape).moveTo(25.367, 18.38);
		((GeneralPath) shape).lineTo(25.266, 18.438);
		((GeneralPath) shape).curveTo(23.934, 17.962, 23.027, 17.653, 22.547,
				17.52);
		((GeneralPath) shape).curveTo(21.664001, 17.278, 20.773, 17.145, 19.867,
				17.122);
		((GeneralPath) shape).curveTo(19.129, 17.102, 18.316, 16.86, 17.426,
				16.399);
		((GeneralPath) shape).curveTo(13.582001, 16.208, 10.973001, 17.731,
				9.586, 20.962);
		((GeneralPath) shape).curveTo(9.160001, 22.825, 9.199, 24.692, 9.707001,
				26.559);
		((GeneralPath) shape).curveTo(10.719001, 30.321, 13.531, 32.2, 18.145,
				32.2);
		((GeneralPath) shape).curveTo(21.266, 32.173, 23.453001, 31.149, 24.707,
				29.122002);
		((GeneralPath) shape).curveTo(24.891, 28.825, 25.266, 28.067001,
				25.824001, 26.841002);
		((GeneralPath) shape).curveTo(26.172, 26.04, 26.531002, 25.548002,
				26.906002, 25.36);
		((GeneralPath) shape).curveTo(27.734001, 24.934, 28.238003, 24.813,
				28.426003, 25.001001);
		((GeneralPath) shape).lineTo(28.785002, 23.919);
		((GeneralPath) shape).curveTo(28.918001, 22.985, 28.719002, 22.04,
				28.188002, 21.079);
		((GeneralPath) shape).curveTo(27.574001, 19.985, 26.824001, 19.188,
				25.945002, 18.68);
		((GeneralPath) shape).curveTo(25.785002, 18.583, 25.590002, 18.485,
				25.367002, 18.380001);
		((GeneralPath) shape).closePath();

		g.setPaint(new Color(0xFFBDBA));
		g.fill(shape);

		// _0_0_0_14
		shape = new GeneralPath();
		((GeneralPath) shape).moveTo(25.367, 18.38);
		((GeneralPath) shape).lineTo(25.387001, 18.359999);
		((GeneralPath) shape).curveTo(25.137001, 18.246998, 24.777, 18.105999,
				24.305, 17.937998);
		((GeneralPath) shape).lineTo(23.887001, 17.800999);
		((GeneralPath) shape).curveTo(23.285002, 17.586998, 22.582, 17.359999,
				21.785002, 17.121998);
		((GeneralPath) shape).curveTo(20.801003, 16.828999, 20.109001,
				16.574997, 19.707, 16.359999);
		((GeneralPath) shape).curveTo(19.305, 16.145, 18.898, 15.953999,
				18.484001, 15.777999);
		((GeneralPath) shape).curveTo(18.078001, 15.609999, 17.723001,
				15.8169985, 17.426, 16.398998);
		((GeneralPath) shape).curveTo(18.316, 16.859999, 19.129, 17.101997,
				19.867, 17.121998);
		((GeneralPath) shape).curveTo(20.773, 17.144999, 21.664001, 17.277998,
				22.547, 17.519999);
		((GeneralPath) shape).curveTo(23.027, 17.652998, 23.934, 17.961998,
				25.266, 18.437998);
		((GeneralPath) shape).lineTo(25.367, 18.379997);
		((GeneralPath) shape).closePath();

		g.setPaint(new Color(0xE8A09B));
		g.fill(shape);

		// _0_0_0_15
		shape = new GeneralPath();
		((GeneralPath) shape).moveTo(14.145, 3.239);
		((GeneralPath) shape).lineTo(14.906, 3.3600001);
		((GeneralPath) shape).curveTo(15.441, 3.387, 15.812, 3.344, 16.027,
				3.239);
		((GeneralPath) shape).curveTo(16.348, 3.1060002, 16.828001, 2.7080002,
				17.465, 2.04);
		((GeneralPath) shape).curveTo(18.133, 1.348, 18.414, 0.90699995, 18.305,
				0.719);
		((GeneralPath) shape).curveTo(18.121, 0.454, 17.625, 0.68, 16.828001,
				1.3989999);
		((GeneralPath) shape).lineTo(17.508001, 0.19999993);
		((GeneralPath) shape).curveTo(16.52, -0.066000074, 15.758001,
				-0.066000074, 15.227001, 0.19999993);
		((GeneralPath) shape).curveTo(14.906001, 0.35999992, 14.641001,
				0.6259999, 14.426002, 1.0009999);
		((GeneralPath) shape).lineTo(14.188002, 1.52);
		((GeneralPath) shape).lineTo(14.145001, 3.2389998);
		((GeneralPath) shape).closePath();

		g.setPaint(new Color(0xBA7763));
		g.fill(shape);

		// _0_0_0_16
		shape = new GeneralPath();
		((GeneralPath) shape).moveTo(15.145, 2.36);
		((GeneralPath) shape).lineTo(15.465, 1.3989999);
		((GeneralPath) shape).curveTo(15.867001, 0.70799994, 16.547, 0.30499995,
				17.508, 0.19999993);
		((GeneralPath) shape).curveTo(16.519999, -0.066000074, 15.757999,
				-0.066000074, 15.226999, 0.19999993);
		((GeneralPath) shape).curveTo(14.905999, 0.35999992, 14.640999,
				0.6259999, 14.426, 1.0009999);
		((GeneralPath) shape).lineTo(14.188, 1.52);
		((GeneralPath) shape).lineTo(14.188, 2.079);
		((GeneralPath) shape).lineTo(15.1449995, 2.36);
		((GeneralPath) shape).closePath();

		g.setPaint(new Color(0x9E6554));
		g.fill(shape);

		// _0_0_0_17
		shape = new GeneralPath();
		((GeneralPath) shape).moveTo(10.586, 7.759);
		((GeneralPath) shape).curveTo(10.266001, 8.61, 10.172001, 9.410999,
				10.305, 10.160999);
		((GeneralPath) shape).lineTo(10.586, 11.000999);
		((GeneralPath) shape).lineTo(14.027, 8.199999);
		((GeneralPath) shape).lineTo(14.145, 2.519999);
		((GeneralPath) shape).curveTo(14.094001, 3.234999, 13.566, 4.074999,
				12.566, 5.039999);
		((GeneralPath) shape).curveTo(11.562, 6.004999, 10.902, 6.9109993,
				10.586, 7.758999);
		((GeneralPath) shape).closePath();

		g.setPaint(new Color(0xE8A09B));
		g.fill(shape);

		// _0_0_0_18
		shape = new GeneralPath();
		((GeneralPath) shape).moveTo(16.145, 6.7);
		((GeneralPath) shape).curveTo(15.957001, 6.1569996, 15.758, 5.7469997,
				15.547001, 5.481);
		((GeneralPath) shape).curveTo(15.148001, 6.786, 14.801001, 8.134,
				14.508001, 9.52);
		((GeneralPath) shape).lineTo(13.707002, 11.68);
		((GeneralPath) shape).curveTo(14.051002, 11.653, 14.574001, 11.255,
				15.266002, 10.481);
		((GeneralPath) shape).curveTo(15.688002, 9.989, 15.988002, 9.372,
				16.168001, 8.618);
		((GeneralPath) shape).curveTo(16.348001, 7.88, 16.340002, 7.2390003,
				16.145, 6.7);
		((GeneralPath) shape).closePath();

		g.fill(shape);

		// _0_0_0_19
		shape = new GeneralPath();
		((GeneralPath) shape).moveTo(10.586, 11.001);
		((GeneralPath) shape).curveTo(11.652, 12.653, 12.812, 12.813001, 14.066,
				11.481);
		((GeneralPath) shape).curveTo(15.188, 10.278, 15.707, 9.051, 15.625,
				7.8009996);
		((GeneralPath) shape).curveTo(15.574, 6.786, 15.828, 5.5479994, 16.387,
				4.0789995);
		((GeneralPath) shape).curveTo(16.651999, 3.3599997, 16.934, 2.7349997,
				17.227, 2.1999996);
		((GeneralPath) shape).lineTo(16.585999, 1.9189996);
		((GeneralPath) shape).curveTo(16.133, 1.7349995, 15.331999, 1.5979996,
				14.187999, 1.5199995);
		((GeneralPath) shape).curveTo(14.159999, 2.0009995, 14.065999,
				2.5589995, 13.905999, 3.1999993);
		((GeneralPath) shape).curveTo(13.558999, 4.4809995, 13.026999,
				5.5199995, 12.304999, 6.320999);
		((GeneralPath) shape).curveTo(11.348, 7.359999, 10.773, 8.453999,
				10.5859995, 9.598);
		((GeneralPath) shape).lineTo(10.5859995, 11.000999);
		((GeneralPath) shape).closePath();

		g.setPaint(new Color(0xFFBDBA));
		g.fill(shape);

		// _0_0_0_20
		shape = new GeneralPath();
		((GeneralPath) shape).moveTo(4.465, 8.899);
		((GeneralPath) shape).curveTo(4.8120003, 9.337, 5.57, 9.673, 6.7460003,
				9.899);
		((GeneralPath) shape).curveTo(7.9220004, 10.122, 8.895, 9.555,
				9.6640005, 8.2);
		((GeneralPath) shape).curveTo(10.441001, 6.8479996, 10.547001, 5.751,
				9.984, 4.8989997);
		((GeneralPath) shape).curveTo(9.418, 4.048, 9.426001, 3.4619997, 10.008,
				3.1409998);
		((GeneralPath) shape).curveTo(10.586, 2.817, 11.047001, 2.6099997,
				11.387, 2.5199997);
		((GeneralPath) shape).lineTo(10.906, 2.4809997);
		((GeneralPath) shape).curveTo(9.4140005, 2.4809997, 8.039, 2.8129997,
				6.7850003, 3.4809997);
		((GeneralPath) shape).curveTo(5.3980002, 4.2269998, 4.3710003, 5.278,
				3.7070003, 6.641);
		((GeneralPath) shape).lineTo(3.7460003, 6.8799996);
		((GeneralPath) shape).curveTo(3.8790002, 7.7899995, 4.117, 8.462, 4.465,
				8.899);
		((GeneralPath) shape).closePath();

		g.setPaint(new Color(0xE8A09B));
		g.fill(shape);

		// _0_0_0_21
		shape = new GeneralPath();
		((GeneralPath) shape).moveTo(13.664, 2.481);
		((GeneralPath) shape).curveTo(13.879, 2.3439999, 13.641, 2.1339998,
				12.945, 1.841);
		((GeneralPath) shape).lineTo(14.026999, 1.759);
		((GeneralPath) shape).curveTo(13.757999, 1.012, 13.426, 0.53199995,
				13.026999, 0.32099998);
		((GeneralPath) shape).curveTo(12.624999, 0.10599998, 12.198999,
				0.06699997, 11.745999, 0.19999999);
		((GeneralPath) shape).lineTo(10.624999, 0.962);
		((GeneralPath) shape).curveTo(10.679999, 1.173, 10.745999, 1.3870001,
				10.823999, 1.598);
		((GeneralPath) shape).curveTo(10.983999, 2.051, 11.16, 2.266, 11.348,
				2.239);
		((GeneralPath) shape).curveTo(11.801, 2.2120001, 12.32, 2.255,
				12.905999, 2.3600001);
		((GeneralPath) shape).curveTo(13.386999, 2.466, 13.640999, 2.505,
				13.664, 2.4810002);
		((GeneralPath) shape).closePath();

		g.setPaint(new Color(0xBA7763));
		g.fill(shape);

		// _0_0_0_22
		shape = new GeneralPath();
		((GeneralPath) shape).moveTo(10.664, 1.841);
		((GeneralPath) shape).lineTo(11.905999, 1.2779999);
		((GeneralPath) shape).curveTo(12.811999, 1.0399998, 13.5199995,
				1.1999999, 14.026999, 1.7589998);
		((GeneralPath) shape).curveTo(13.757999, 1.0119998, 13.426, 0.5319998,
				13.026999, 0.32099986);
		((GeneralPath) shape).curveTo(12.624999, 0.10599986, 12.198999,
				0.06699985, 11.745999, 0.19999987);
		((GeneralPath) shape).lineTo(10.664, 1.0399998);
		((GeneralPath) shape).curveTo(10.719, 1.2269999, 10.73, 1.4149998,
				10.707, 1.5979998);
		((GeneralPath) shape).lineTo(10.664, 1.8409998);
		((GeneralPath) shape).closePath();

		g.setPaint(new Color(0x9E6554));
		g.fill(shape);

		// _0_0_0_23
		shape = new GeneralPath();
		((GeneralPath) shape).moveTo(8.867, 3.481);
		((GeneralPath) shape).curveTo(9.370999, 3.184, 9.973, 2.962, 10.664,
				2.8009999);
		((GeneralPath) shape).curveTo(11.198999, 2.665, 11.757999, 2.4929998,
				12.348, 2.2779999);
		((GeneralPath) shape).curveTo(12.188, 2.3049998, 12.026999, 2.294,
				11.867, 2.2389998);
		((GeneralPath) shape).curveTo(11.492, 2.1839998, 11.238, 2.0279999,
				11.105, 1.7589998);
		((GeneralPath) shape).curveTo(10.917999, 1.3329998, 10.891, 0.96199983,
				11.026999, 0.6409998);
		((GeneralPath) shape).curveTo(10.039, 0.7739998, 8.879, 1.0399997,
				7.5469995, 1.4379997);
		((GeneralPath) shape).curveTo(4.9339995, 2.2119997, 3.6909995,
				3.0939999, 3.8239994, 4.0789995);
		((GeneralPath) shape).curveTo(4.0389996, 4.5319996, 4.1879992,
				4.9069996, 4.2659993, 5.2);
		((GeneralPath) shape).curveTo(4.452999, 5.7349997, 4.3709993, 6.3989997,
				4.0269995, 7.2);
		((GeneralPath) shape).curveTo(3.7299995, 7.868, 3.7459996, 8.505,
				4.0659995, 9.118);
		((GeneralPath) shape).curveTo(4.4409995, 9.759, 5.1209993, 10.118,
				6.1049995, 10.2);
		((GeneralPath) shape).curveTo(7.4919996, 10.278, 8.507999, 9.747,
				9.1449995, 8.598);
		((GeneralPath) shape).curveTo(9.679999, 7.6649995, 9.851999, 6.6649995,
				9.664, 5.5979996);
		((GeneralPath) shape).curveTo(9.507999, 4.641, 9.051, 4.0509996,
				8.304999, 3.8409996);
		((GeneralPath) shape).lineTo(8.867, 3.4809995);
		((GeneralPath) shape).closePath();

		g.setPaint(new Color(0xFFBDBA));
		g.fill(shape);

		// _0_0_0_24
		shape = new GeneralPath();
		((GeneralPath) shape).moveTo(14.066, 28.68);
		((GeneralPath) shape).curveTo(14.387, 28.255001, 14.559, 27.692, 14.586,
				27.001);
		((GeneralPath) shape).curveTo(14.641001, 25.587, 13.961, 24.161,
				12.547001, 22.719);
		((GeneralPath) shape).curveTo(11.426001, 21.571, 9.441001, 21.653,
				6.586001, 22.962);
		((GeneralPath) shape).curveTo(5.172001, 23.598, 3.8670008, 24.36,
				2.668001, 25.239);
		((GeneralPath) shape).curveTo(2.668001, 25.559, 2.812001, 25.946001,
				3.105001, 26.399);
		((GeneralPath) shape).curveTo(3.668001, 27.305, 4.6800013, 28.118,
				6.145001, 28.841);
		((GeneralPath) shape).curveTo(8.387001, 29.934, 10.371, 30.227,
				12.105001, 29.719);
		((GeneralPath) shape).curveTo(12.984001, 29.480999, 13.641002, 29.134,
				14.066002, 28.68);
		((GeneralPath) shape).closePath();

		g.fill(shape);

		// _0_0_0_25
		shape = new GeneralPath();
		((GeneralPath) shape).moveTo(14.547, 27.399);
		((GeneralPath) shape).curveTo(14.707, 26.305, 14.398, 25.184, 13.625,
				24.04);
		((GeneralPath) shape).curveTo(13.254, 23.774, 12.824, 23.598001, 12.348,
				23.52);
		((GeneralPath) shape).curveTo(10.398, 23.173, 8.733999, 23.426,
				7.3479996, 24.278);
		((GeneralPath) shape).lineTo(5.8239994, 25.68);
		((GeneralPath) shape).curveTo(5.878999, 25.946001, 6.0659995, 26.255001,
				6.3869996, 26.598);
		((GeneralPath) shape).curveTo(7.0779996, 27.293999, 8.172, 27.828999,
				9.667999, 28.199999);
		((GeneralPath) shape).curveTo(11.851999, 28.734999, 13.48, 28.466,
				14.546999, 27.398998);
		((GeneralPath) shape).closePath();

		g.setPaint(new Color(0xE39C8C));
		g.fill(shape);

		// _0_0_0_26
		shape = new GeneralPath();
		((GeneralPath) shape).moveTo(9.668, 28.2);
		((GeneralPath) shape).curveTo(11.852, 28.735, 13.4800005, 28.466002,
				14.547001, 27.399);
		((GeneralPath) shape).lineTo(14.586, 26.759);
		((GeneralPath) shape).curveTo(13.305, 27.559, 11.719, 27.813002, 9.824,
				27.52);
		((GeneralPath) shape).curveTo(7.879, 27.227001, 6.5470004, 26.626001,
				5.8240004, 25.719);
		((GeneralPath) shape).curveTo(5.8240004, 25.962, 6.0390005, 26.278,
				6.465, 26.68);
		((GeneralPath) shape).curveTo(7.1600003, 27.321001, 8.227, 27.825,
				9.668, 28.2);
		((GeneralPath) shape).closePath();

		g.setPaint(new Color(0xBA7763));
		g.fill(shape);

		// _0_0_0_27
		shape = new GeneralPath();
		((GeneralPath) shape).moveTo(12.027, 25.801);
		((GeneralPath) shape).lineTo(11.746, 25.559);
		((GeneralPath) shape).lineTo(12.188001, 26.161);
		((GeneralPath) shape).curveTo(12.453001, 26.532, 12.973001, 26.824999,
				13.746, 27.039999);
		((GeneralPath) shape).lineTo(13.348001, 27.039999);
		((GeneralPath) shape).lineTo(12.066001, 26.841);
		((GeneralPath) shape).lineTo(12.906001, 27.199999);
		((GeneralPath) shape).curveTo(13.359001, 27.414999, 13.906001,
				27.480999, 14.547001, 27.398998);
		((GeneralPath) shape).curveTo(14.734001, 27.238998, 14.812001,
				27.000998, 14.785001, 26.679998);
		((GeneralPath) shape).curveTo(14.785001, 26.359999, 14.668001,
				26.066998, 14.426001, 25.800999);
		((GeneralPath) shape).lineTo(14.1050005, 25.841);
		((GeneralPath) shape).curveTo(13.867001, 25.841, 13.625001, 25.734999,
				13.387, 25.52);
		((GeneralPath) shape).lineTo(13.1050005, 25.2);
		((GeneralPath) shape).lineTo(13.027, 25.641);
		((GeneralPath) shape).curveTo(13.0, 25.825, 13.051001, 26.001001,
				13.188001, 26.161001);
		((GeneralPath) shape).lineTo(13.387001, 26.36);
		((GeneralPath) shape).curveTo(13.281001, 26.36, 13.051001, 26.294,
				12.707001, 26.161001);
		((GeneralPath) shape).curveTo(12.492001, 26.079, 12.266001, 25.962002,
				12.027, 25.801);
		((GeneralPath) shape).closePath();

		g.setPaint(new Color(0xFFBDBA));
		g.fill(shape);

		// _0_0_0_28
		shape = new GeneralPath();
		((GeneralPath) shape).moveTo(21.945, 18.68);
		((GeneralPath) shape).curveTo(21.305, 18.973, 20.785, 19.266, 20.387,
				19.559);
		((GeneralPath) shape).lineTo(19.945, 19.88);
		((GeneralPath) shape).lineTo(20.387, 19.598);
		((GeneralPath) shape).curveTo(20.811998, 19.387, 21.397999, 19.161,
				22.144999, 18.918999);
		((GeneralPath) shape).curveTo(23.187998, 18.571, 24.144999, 18.425999,
				25.026999, 18.480999);
		((GeneralPath) shape).curveTo(25.479998, 18.505, 25.824, 18.574999,
				26.065998, 18.679998);
		((GeneralPath) shape).lineTo(26.226997, 18.800999);
		((GeneralPath) shape).lineTo(25.823997, 18.480999);
		((GeneralPath) shape).lineTo(25.065998, 18.161);
		((GeneralPath) shape).curveTo(23.917997, 18.078999, 22.878998, 18.255,
				21.944998, 18.679998);
		((GeneralPath) shape).closePath();

		g.setPaint(new Color(0xBA7763));
		g.fill(shape);

		// _0_0_0_29
		shape = new GeneralPath();
		((GeneralPath) shape).moveTo(23.188, 23.641);
		((GeneralPath) shape).curveTo(23.133, 22.895, 22.801, 22.266, 22.188,
				21.759);
		((GeneralPath) shape).curveTo(21.574, 21.278, 20.879, 21.067001, 20.105,
				21.122002);
		((GeneralPath) shape).curveTo(19.331999, 21.173002, 18.691, 21.493002,
				18.188, 22.079002);
		((GeneralPath) shape).curveTo(17.68, 22.669003, 17.453, 23.344002,
				17.508, 24.122002);
		((GeneralPath) shape).curveTo(17.559, 24.891, 17.890999, 25.532001,
				18.508, 26.04);
		((GeneralPath) shape).curveTo(19.121, 26.52, 19.812, 26.735, 20.585999,
				26.68);
		((GeneralPath) shape).curveTo(21.359, 26.598, 22.012, 26.266, 22.546999,
				25.68);
		((GeneralPath) shape).curveTo(23.050999, 25.067, 23.265999, 24.387001,
				23.188, 23.641);
		((GeneralPath) shape).closePath();

		g.setPaint(new Color(0xFFF5F5));
		g.fill(shape);

		// _0_0_0_30
		shape = new GeneralPath();
		((GeneralPath) shape).moveTo(23.027, 23.919);
		((GeneralPath) shape).curveTo(23.027, 23.387001, 22.824001, 22.919,
				22.426, 22.52);
		((GeneralPath) shape).curveTo(22.027, 22.145, 21.531, 21.962, 20.945,
				21.962);
		((GeneralPath) shape).curveTo(20.387, 21.962, 19.906, 22.145, 19.508,
				22.52);
		((GeneralPath) shape).curveTo(19.105, 22.919, 18.906, 23.387001, 18.906,
				23.919);
		((GeneralPath) shape).curveTo(18.906, 24.454, 19.105, 24.919, 19.508,
				25.321001);
		((GeneralPath) shape).curveTo(19.906, 25.692001, 20.387, 25.880001,
				20.945, 25.880001);
		((GeneralPath) shape).curveTo(21.531, 25.880001, 22.027, 25.692001,
				22.425999, 25.321001);
		((GeneralPath) shape).curveTo(22.824, 24.919, 23.026999, 24.454,
				23.026999, 23.919);
		((GeneralPath) shape).closePath();

		g.setPaint(new Color(0x292727));
		g.fill(shape);

		// _0_0_0_31
		shape = new GeneralPath();
		((GeneralPath) shape).moveTo(21.547, 24.759);
		((GeneralPath) shape).curveTo(21.547, 24.466002, 21.441, 24.2,
				21.227001, 23.962);
		((GeneralPath) shape).curveTo(20.984001, 23.747, 20.719002, 23.641,
				20.426, 23.641);
		((GeneralPath) shape).curveTo(20.105001, 23.641, 19.84, 23.747002,
				19.625, 23.962);
		((GeneralPath) shape).curveTo(19.414, 24.2, 19.305, 24.466, 19.305,
				24.759);
		((GeneralPath) shape).curveTo(19.305, 25.051, 19.414, 25.321001, 19.625,
				25.559);
		((GeneralPath) shape).curveTo(19.84, 25.774, 20.105, 25.88, 20.426,
				25.88);
		((GeneralPath) shape).curveTo(20.719, 25.88, 20.984001, 25.773998,
				21.227001, 25.559);
		((GeneralPath) shape).curveTo(21.441002, 25.321, 21.547, 25.051, 21.547,
				24.759);
		((GeneralPath) shape).closePath();

		g.setPaint(new Color(0xFFF5F5));
		g.fill(shape);

		// _0_0_0_32
		shape = new GeneralPath();
		((GeneralPath) shape).moveTo(20.066, 22.641);
		((GeneralPath) shape).lineTo(20.465, 22.641);
		((GeneralPath) shape).curveTo(20.812, 22.641, 21.145, 22.719, 21.465,
				22.880001);
		((GeneralPath) shape).curveTo(22.16, 23.2, 22.559, 23.626001, 22.668,
				24.161001);
		((GeneralPath) shape).curveTo(22.800999, 23.466002, 22.491999,
				22.907001, 21.745998, 22.481);
		((GeneralPath) shape).curveTo(21.347998, 22.266, 20.944998, 22.227001,
				20.546999, 22.36);
		((GeneralPath) shape).lineTo(20.065998, 22.641);
		((GeneralPath) shape).closePath();

		g.setPaint(new Color(0x8F5B59));
		g.fill(shape);

		// _0_0_0_33
		shape = new GeneralPath();
		((GeneralPath) shape).moveTo(18.746, 32.759);
		((GeneralPath) shape).curveTo(18.773, 32.653, 18.758, 32.575, 18.707,
				32.52);
		((GeneralPath) shape).curveTo(18.598001, 32.415, 18.453001, 32.344,
				18.266, 32.321);
		((GeneralPath) shape).lineTo(18.066, 32.321);
		((GeneralPath) shape).lineTo(19.066, 31.918999);
		((GeneralPath) shape).curveTo(19.387, 31.758999, 19.719, 31.547998,
				20.066, 31.277998);
		((GeneralPath) shape).curveTo(20.121, 31.172998, 19.785, 31.133999,
				19.066, 31.160997);
		((GeneralPath) shape).lineTo(17.824, 31.320997);
		((GeneralPath) shape).lineTo(18.144999, 30.840998);
		((GeneralPath) shape).curveTo(18.227, 30.597998, 18.227, 30.425997,
				18.144999, 30.320997);
		((GeneralPath) shape).curveTo(18.012, 30.320997, 17.772999, 30.414997,
				17.425999, 30.597998);
		((GeneralPath) shape).lineTo(16.745998, 31.078999);
		((GeneralPath) shape).lineTo(15.585999, 31.199999);
		((GeneralPath) shape).lineTo(15.425999, 31.398998);
		((GeneralPath) shape).lineTo(15.386999, 31.480999);
		((GeneralPath) shape).curveTo(15.437999, 31.558998, 15.664, 31.653,
				16.066, 31.758999);
		((GeneralPath) shape).lineTo(16.305, 32.001);
		((GeneralPath) shape).curveTo(16.52, 32.184, 16.707, 32.305, 16.867,
				32.36);
		((GeneralPath) shape).curveTo(17.16, 32.466, 17.785, 32.598, 18.746,
				32.759);
		((GeneralPath) shape).closePath();

		g.setPaint(new Color(0xE8A09B));
		g.fill(shape);

		// _0_0_0_34
		shape = new GeneralPath();
		((GeneralPath) shape).moveTo(18.625, 31.321);
		((GeneralPath) shape).curveTo(18.254, 31.372, 17.945, 31.438, 17.707,
				31.519999);
		((GeneralPath) shape).lineTo(17.508001, 31.597998);
		((GeneralPath) shape).curveTo(17.879002, 31.066998, 18.051, 30.758997,
				18.027, 30.679998);
		((GeneralPath) shape).lineTo(17.984001, 30.519999);
		((GeneralPath) shape).curveTo(17.559002, 30.734999, 17.266, 30.906998,
				17.105001, 31.039999);
		((GeneralPath) shape).lineTo(16.824001, 31.278);
		((GeneralPath) shape).lineTo(14.3480015, 31.079);
		((GeneralPath) shape).curveTo(14.133001, 31.079, 13.961001, 31.118,
				13.824001, 31.2);
		((GeneralPath) shape).lineTo(13.707002, 31.321001);
		((GeneralPath) shape).lineTo(14.508001, 31.880001);
		((GeneralPath) shape).curveTo(15.172001, 32.278, 15.891002, 32.52,
				16.664001, 32.598);
		((GeneralPath) shape).curveTo(17.867, 32.735, 18.559002, 32.786,
				18.746002, 32.759);
		((GeneralPath) shape).curveTo(18.691002, 32.575, 18.480001, 32.466,
				18.105001, 32.438);
		((GeneralPath) shape).lineTo(17.586002, 32.399);
		((GeneralPath) shape).lineTo(18.266003, 32.161);
		((GeneralPath) shape).curveTo(18.746002, 31.973, 19.090002, 31.800999,
				19.305002, 31.640999);
		((GeneralPath) shape).lineTo(19.863003, 31.321);
		((GeneralPath) shape).curveTo(19.652002, 31.238998, 19.238003,
				31.238998, 18.625002, 31.321);
		((GeneralPath) shape).closePath();

		g.setPaint(new Color(0xFFBDBA));
		g.fill(shape);

		// _0_0_0_35
		shape = new GeneralPath();
		((GeneralPath) shape).moveTo(28.426, 24.962);
		((GeneralPath) shape).lineTo(28.785, 23.88);
		((GeneralPath) shape).curveTo(28.918, 22.946, 28.719, 22.001, 28.188,
				21.039999);
		((GeneralPath) shape).curveTo(27.68, 20.183998, 27.094, 19.466, 26.426,
				18.88);
		((GeneralPath) shape).curveTo(25.758001, 19.144999, 25.492, 19.962,
				25.625, 21.321);
		((GeneralPath) shape).curveTo(25.758, 22.734999, 26.266, 23.747, 27.145,
				24.359999);
		((GeneralPath) shape).curveTo(27.652, 24.652998, 28.0, 24.824999,
				28.188, 24.88);
		((GeneralPath) shape).lineTo(28.426, 24.962);
		((GeneralPath) shape).closePath();

		g.setPaint(new Color(0xFFCDCA));
		g.fill(shape);

		// _0_0_0_36
		shape = new GeneralPath();
		((GeneralPath) shape).moveTo(27.984, 22.88);
		((GeneralPath) shape).curveTo(27.879, 22.640999, 27.800999, 22.387,
				27.745998, 22.118);
		((GeneralPath) shape).curveTo(27.852, 21.747, 27.890999, 21.505,
				27.866999, 21.399);
		((GeneralPath) shape).curveTo(27.758, 20.973, 27.585999, 20.653, 27.348,
				20.438);
		((GeneralPath) shape).curveTo(27.105, 20.227, 26.961, 20.265999, 26.906,
				20.559);
		((GeneralPath) shape).curveTo(26.852, 21.012, 27.012001, 21.532,
				27.387001, 22.118);
		((GeneralPath) shape).curveTo(27.570002, 22.415, 27.773, 22.665,
				27.984001, 22.88);
		((GeneralPath) shape).closePath();

		g.setPaint(new Color(0xE3A496));
		g.fill(shape);

		g.setTransform(transformations.pop()); // _0_0

		g.setTransform(transformations.pop()); // _0

	}
}

/**
 * This class has been automatically generated using
 * <a href="http://ebourg.github.io/flamingo-svg-transcoder/">Flamingo SVG
 * transcoder</a>.
 */

/**
 * This class is based on ouput from
 * <a href="http://ebourg.github.io/flamingo-svg-transcoder/">Flamingo SVG
 * transcoder</a>.
 * <p>
 * The source image is available as public domain from <a href=
 * "https://openclipart.org/detail/330404/kindergarten-teacher-3">openclipart</a>.
 */
class KindergartenTeacher implements javax.swing.Icon {

	/** The width of this icon. */
	private int width;

	/** The height of this icon. */
	private int height;

	/**
	 * Creates a new transcoded SVG image.
	 */
	public KindergartenTeacher(int width, int height) {
		this.width = width;
		this.height = height;
	}

	@Override
	public int getIconHeight() {
		return height;
	}

	@Override
	public int getIconWidth() {
		return width;
	}

	@Override
	public void paintIcon(Component c, Graphics g, int x, int y) {
		double coef = Math.min((double) width / (double) 1371,
				(double) height / (double) 1136);

		Graphics2D g2d = (Graphics2D) g.create();
		g2d.setRenderingHint(RenderingHints.KEY_ANTIALIASING,
				RenderingHints.VALUE_ANTIALIAS_ON);
		g2d.scale(coef, coef);
		paint(g2d);
		g2d.dispose();
	}

	/**
	 * Paints the transcoded SVG image on the specified graphics context.
	 * 
	 * @param g
	 *            Graphics context.
	 */
	private static void paint(Graphics2D g) {
		Shape shape = null;

		float origAlpha = 1.0f;

		java.util.LinkedList<AffineTransform> transformations = new java.util.LinkedList<AffineTransform>();

		//

		// _0

		// _0_0

		// _0_0_0

		// _0_0_0_0
		shape = new GeneralPath();
		((GeneralPath) shape).moveTo(197.917, 1120.99);
		((GeneralPath) shape).lineTo(341.917, 1120.99);
		((GeneralPath) shape).lineTo(341.251, 1064.32);
		((GeneralPath) shape).lineTo(333.917, 1036.99);
		((GeneralPath) shape).lineTo(211.917, 1044.99);
		((GeneralPath) shape).lineTo(197.917, 1120.99);

		g.setPaint(new Color(0xFEFEFE));
		g.fill(shape);

		// _0_0_0_1
		shape = new GeneralPath();
		((GeneralPath) shape).moveTo(682.879, 572.924);
		((GeneralPath) shape).curveTo(685.341, 562.601, 687.27, 551.583,
				688.539, 539.296);
		((GeneralPath) shape).curveTo(698.113, 551.524, 707.939, 562.184,
				718.753, 572.924);
		((GeneralPath) shape).curveTo(706.845, 572.924, 694.937, 572.924,
				682.879, 572.924);
		((GeneralPath) shape).closePath();
		((GeneralPath) shape).moveTo(1370.26, 866.444);
		((GeneralPath) shape).curveTo(1369.6, 835.08, 1362.16, 805.757, 1345.87,
				779.143);
		((GeneralPath) shape).curveTo(1317.13, 732.193, 1275.02, 701.777,
				1223.48, 684.158);
		((GeneralPath) shape).curveTo(1195.39, 674.558, 1166.44, 669.647,
				1136.58, 673.013);
		((GeneralPath) shape).curveTo(1134.03, 673.301, 1132.01, 672.296,
				1129.91, 671.436);
		((GeneralPath) shape).curveTo(1109.53, 663.07, 1088.54, 657.783,
				1066.32, 658.988);
		((GeneralPath) shape).curveTo(1063.24, 659.155, 1062.37, 657.642,
				1061.37, 655.368);
		((GeneralPath) shape).curveTo(1054.76, 640.301, 1047.54, 625.535,
				1039.22, 611.333);
		((GeneralPath) shape).curveTo(1037.45, 608.313, 1037.49, 607.034,
				1041.09, 605.446);
		((GeneralPath) shape).curveTo(1062.4, 596.05, 1081.74, 583.536, 1099.01,
				567.87);
		((GeneralPath) shape).curveTo(1108.76, 559.036, 1117.41, 549.206,
				1126.06, 538.13);
		((GeneralPath) shape).curveTo(1126.47, 541.07, 1126.8, 543.126, 1127.03,
				545.193);
		((GeneralPath) shape).curveTo(1129.86, 570.421, 1136.72, 594.416,
				1149.49, 616.469);
		((GeneralPath) shape).curveTo(1163.14, 640.028, 1181.41, 658.959,
				1206.05, 671.197);
		((GeneralPath) shape).curveTo(1212.31, 674.301, 1214.84, 673.725,
				1219.18, 668.876);
		((GeneralPath) shape).curveTo(1221.74, 667.321, 1221.37, 665.016,
				1220.69, 662.695);
		((GeneralPath) shape).curveTo(1219.73, 659.405, 1217.27, 657.563,
				1214.34, 656.068);
		((GeneralPath) shape).curveTo(1193.89, 645.658, 1178.31, 630.078,
				1166.38, 610.656);
		((GeneralPath) shape).curveTo(1149.0, 582.367, 1143.7, 550.945, 1142.45,
				518.471);
		((GeneralPath) shape).curveTo(1142.36, 515.901, 1143.18, 513.554,
				1144.36, 511.314);
		((GeneralPath) shape).curveTo(1151.52, 497.736, 1157.8, 483.778,
				1162.19, 469.048);
		((GeneralPath) shape).curveTo(1163.31, 465.294, 1165.19, 464.966,
				1168.5, 466.254);
		((GeneralPath) shape).curveTo(1174.57, 468.617, 1180.41, 471.425,
				1186.16, 474.434);
		((GeneralPath) shape).curveTo(1221.19, 492.755, 1244.1, 521.142,
				1255.61, 558.769);
		((GeneralPath) shape).curveTo(1261.49, 577.99, 1264.06, 597.751,
				1263.79, 617.868);
		((GeneralPath) shape).curveTo(1263.73, 621.695, 1263.43, 625.559,
				1263.96, 629.344);
		((GeneralPath) shape).curveTo(1264.46, 632.987, 1265.41, 636.635,
				1270.16, 637.018);
		((GeneralPath) shape).curveTo(1277.59, 637.765, 1281.07, 635.186,
				1281.23, 628.566);
		((GeneralPath) shape).curveTo(1281.71, 608.204, 1280.64, 587.971,
				1276.08, 568.029);
		((GeneralPath) shape).curveTo(1265.99, 523.853, 1243.14, 488.538,
				1204.18, 464.401);
		((GeneralPath) shape).curveTo(1197.47, 460.247, 1190.39, 456.785,
				1183.3, 453.391);
		((GeneralPath) shape).curveTo(1183.84, 452.195, 1184.7, 452.133,
				1185.48, 451.86);
		((GeneralPath) shape).curveTo(1199.0, 447.118, 1207.68, 437.684,
				1212.16, 424.223);
		((GeneralPath) shape).curveTo(1215.92, 412.933, 1216.09, 401.314,
				1214.83, 389.662);
		((GeneralPath) shape).curveTo(1214.54, 386.937, 1215.09, 384.872,
				1216.41, 382.67);
		((GeneralPath) shape).curveTo(1247.55, 330.722, 1251.58, 276.201,
				1229.44, 220.356);
		((GeneralPath) shape).curveTo(1201.16, 149.042, 1153.28, 93.446,
				1088.18, 53.241);
		((GeneralPath) shape).curveTo(1032.94, 19.128, 973.138, -0.783, 907.338,
				0.831);
		((GeneralPath) shape).curveTo(875.585, 1.61, 844.34, 5.971, 813.962,
				15.368);
		((GeneralPath) shape).curveTo(796.261, 20.843, 779.091, 27.675, 765.993,
				41.679);
		((GeneralPath) shape).curveTo(764.771, 42.985, 763.425, 42.926, 761.956,
				43.041);
		((GeneralPath) shape).curveTo(741.471, 44.652, 722.065, 50.214, 703.823,
				59.566);
		((GeneralPath) shape).curveTo(662.032, 80.991, 630.768, 113.619,
				606.161, 152.95);
		((GeneralPath) shape).curveTo(585.881, 185.366, 573.723, 220.596,
				572.195, 259.081);
		((GeneralPath) shape).curveTo(570.56, 300.249, 581.324, 338.365, 601.06,
				374.196);
		((GeneralPath) shape).curveTo(602.047, 375.988, 602.761, 377.57,
				602.136, 379.769);
		((GeneralPath) shape).curveTo(599.038, 390.66, 598.611, 401.775,
				600.238, 412.92);
		((GeneralPath) shape).curveTo(602.953, 431.526, 611.459, 445.817,
				630.328, 452.071);
		((GeneralPath) shape).curveTo(631.002, 452.294, 631.45, 452.679,
				631.521, 453.416);
		((GeneralPath) shape).curveTo(581.46, 476.038, 550.981, 514.517, 538.83,
				567.851);
		((GeneralPath) shape).curveTo(537.305, 574.543, 537.266, 574.484,
				529.94, 573.741);
		((GeneralPath) shape).curveTo(488.046, 569.492, 446.153, 565.243,
				404.254, 561.044);
		((GeneralPath) shape).curveTo(361.527, 556.761, 318.793, 552.55,
				276.065, 548.273);
		((GeneralPath) shape).curveTo(269.288, 547.595, 265.628, 550.658,
				265.388, 557.488);
		((GeneralPath) shape).curveTo(265.323, 559.319, 265.377, 561.154,
				265.377, 562.987);
		((GeneralPath) shape).curveTo(265.377, 574.979, 265.377, 574.979,
				253.505, 574.111);
		((GeneralPath) shape).curveTo(244.614, 573.46, 241.385, 576.493,
				241.383, 585.558);
		((GeneralPath) shape).curveTo(241.375, 616.384, 241.38, 647.21, 241.379,
				678.036);
		((GeneralPath) shape).curveTo(241.379, 685.01, 241.377, 685.082,
				234.185, 684.887);
		((GeneralPath) shape).curveTo(208.3, 684.187, 183.091, 687.902, 158.66,
				696.521);
		((GeneralPath) shape).curveTo(108.114, 714.353, 69.721, 747.399, 41.498,
				792.267);
		((GeneralPath) shape).curveTo(9.341, 843.388, -6.265, 898.846, 2.338,
				959.567);
		((GeneralPath) shape).curveTo(6.379, 988.092, 17.08, 1014.11, 38.702,
				1033.89);
		((GeneralPath) shape).curveTo(66.333, 1059.16, 99.821, 1070.19, 136.999,
				1069.9);
		((GeneralPath) shape).curveTo(160.847, 1069.71, 183.841, 1066.01,
				202.892, 1049.15);
		((GeneralPath) shape).curveTo(200.119, 1061.47, 197.276, 1073.39,
				194.781, 1085.38);
		((GeneralPath) shape).curveTo(191.929, 1099.08, 189.939, 1112.91,
				189.771, 1126.94);
		((GeneralPath) shape).curveTo(189.697, 1133.19, 192.31, 1135.88,
				197.843, 1135.84);
		((GeneralPath) shape).curveTo(203.227, 1135.81, 205.518, 1133.09,
				205.742, 1126.68);
		((GeneralPath) shape).curveTo(206.62, 1101.57, 212.45, 1077.33, 218.817,
				1053.18);
		((GeneralPath) shape).curveTo(219.364, 1051.11, 220.233, 1050.52,
				222.274, 1050.92);
		((GeneralPath) shape).curveTo(236.574, 1053.75, 251.048, 1054.0,
				265.545, 1053.54);
		((GeneralPath) shape).curveTo(267.464, 1053.48, 268.221, 1054.01,
				268.701, 1055.71);
		((GeneralPath) shape).curveTo(273.526, 1072.77, 291.998, 1079.2,
				307.376, 1078.14);
		((GeneralPath) shape).curveTo(317.771, 1077.42, 325.898, 1072.48,
				332.929, 1064.62);
		((GeneralPath) shape).curveTo(333.286, 1065.65, 333.589, 1066.21,
				333.663, 1066.8);
		((GeneralPath) shape).curveTo(333.889, 1068.62, 334.041, 1070.44,
				334.199, 1072.26);
		((GeneralPath) shape).curveTo(335.78, 1090.55, 335.781, 1108.83, 333.85,
				1127.1);
		((GeneralPath) shape).curveTo(333.244, 1132.83, 336.346, 1135.93,
				341.981, 1135.84);
		((GeneralPath) shape).curveTo(347.265, 1135.77, 349.383, 1133.23,
				350.061, 1126.06);
		((GeneralPath) shape).curveTo(352.517, 1100.06, 351.454, 1074.18,
				347.448, 1048.41);
		((GeneralPath) shape).curveTo(345.915, 1038.54, 345.871, 1038.62,
				355.113, 1034.94);
		((GeneralPath) shape).curveTo(382.58, 1024.01, 407.388, 1009.05,
				425.716, 985.332);
		((GeneralPath) shape).curveTo(450.053, 953.836, 456.977, 918.08,
				449.796, 879.293);
		((GeneralPath) shape).curveTo(449.355, 876.912, 448.605, 875.207,
				452.305, 875.323);
		((GeneralPath) shape).curveTo(476.593, 876.09, 500.889, 876.612,
				525.174, 877.464);
		((GeneralPath) shape).curveTo(528.555, 877.582, 532.138, 876.883,
				535.413, 878.763);
		((GeneralPath) shape).curveTo(558.681, 892.12, 583.789, 894.827,
				609.758, 890.64);
		((GeneralPath) shape).curveTo(622.864, 888.527, 634.916, 883.721,
				641.058, 870.412);
		((GeneralPath) shape).curveTo(641.957, 868.463, 643.414, 868.932,
				644.808, 868.891);
		((GeneralPath) shape).curveTo(689.557, 867.607, 734.308, 866.363,
				779.055, 865.019);
		((GeneralPath) shape).curveTo(781.854, 864.935, 782.409, 866.008,
				782.346, 868.475);
		((GeneralPath) shape).curveTo(782.046, 880.122, 781.912, 891.773,
				781.637, 903.42);
		((GeneralPath) shape).curveTo(780.884, 935.368, 780.059, 967.313,
				779.342, 999.261);
		((GeneralPath) shape).curveTo(779.218, 1004.8, 781.764, 1008.08,
				786.183, 1008.77);
		((GeneralPath) shape).curveTo(790.445, 1009.44, 793.663, 1006.92,
				795.331, 1001.59);
		((GeneralPath) shape).curveTo(796.34, 999.979, 796.443, 998.158,
				796.663, 996.328);
		((GeneralPath) shape).curveTo(798.876, 977.931, 797.683, 959.413,
				798.254, 940.969);
		((GeneralPath) shape).curveTo(798.964, 918.031, 800.175, 895.06,
				799.597, 872.079);
		((GeneralPath) shape).curveTo(799.589, 871.747, 799.626, 871.412,
				799.607, 871.081);
		((GeneralPath) shape).curveTo(799.418, 867.715, 800.988, 866.466,
				804.361, 866.277);
		((GeneralPath) shape).curveTo(817.661, 865.53, 830.977, 865.584,
				844.276, 865.15);
		((GeneralPath) shape).curveTo(853.485, 864.85, 859.004, 870.482,
				864.407, 875.96);
		((GeneralPath) shape).curveTo(867.879, 879.479, 871.113, 882.683,
				875.772, 884.454);
		((GeneralPath) shape).curveTo(888.785, 889.4, 900.973, 886.869, 912.762,
				880.578);
		((GeneralPath) shape).curveTo(915.464, 879.136, 917.994, 878.051,
				921.262, 878.835);
		((GeneralPath) shape).curveTo(934.431, 881.99, 947.84, 883.233, 961.364,
				883.319);
		((GeneralPath) shape).curveTo(968.136, 883.363, 968.272, 883.567,
				967.512, 890.488);
		((GeneralPath) shape).curveTo(963.434, 927.586, 972.987, 960.807,
				996.328, 989.898);
		((GeneralPath) shape).curveTo(999.769, 994.187, 1003.11, 999.08,
				1008.94, 1000.84);
		((GeneralPath) shape).curveTo(1027.15, 1017.05, 1048.0, 1028.76,
				1070.88, 1036.93);
		((GeneralPath) shape).curveTo(1073.81, 1037.98, 1074.56, 1039.3,
				1074.11, 1042.3);
		((GeneralPath) shape).curveTo(1072.77, 1051.16, 1071.53, 1060.05,
				1070.65, 1068.97);
		((GeneralPath) shape).curveTo(1068.7, 1088.85, 1068.37, 1108.76,
				1070.97, 1128.63);
		((GeneralPath) shape).curveTo(1071.69, 1134.08, 1074.28, 1135.98,
				1079.7, 1135.87);
		((GeneralPath) shape).curveTo(1084.89, 1135.77, 1086.23, 1132.15,
				1087.21, 1128.1);
		((GeneralPath) shape).curveTo(1088.25, 1126.6, 1087.91, 1124.94,
				1087.88, 1123.28);
		((GeneralPath) shape).curveTo(1087.76, 1116.79, 1086.72, 1110.35,
				1086.62, 1103.88);
		((GeneralPath) shape).curveTo(1086.38, 1087.22, 1087.89, 1070.66,
				1089.96, 1054.16);
		((GeneralPath) shape).curveTo(1091.08, 1045.2, 1091.21, 1045.33,
				1099.82, 1047.29);
		((GeneralPath) shape).curveTo(1131.17, 1054.43, 1162.75, 1058.14,
				1194.82, 1053.05);
		((GeneralPath) shape).curveTo(1198.92, 1052.39, 1200.64, 1054.08,
				1201.53, 1057.7);
		((GeneralPath) shape).curveTo(1205.59, 1074.35, 1209.4, 1091.04,
				1211.79, 1108.04);
		((GeneralPath) shape).curveTo(1212.76, 1114.93, 1211.98, 1122.08,
				1214.79, 1128.69);
		((GeneralPath) shape).curveTo(1216.53, 1134.84, 1219.0, 1136.61,
				1224.73, 1135.83);
		((GeneralPath) shape).curveTo(1228.78, 1135.28, 1231.01, 1132.1,
				1230.89, 1126.46);
		((GeneralPath) shape).curveTo(1230.72, 1118.14, 1229.88, 1109.86,
				1228.64, 1101.63);
		((GeneralPath) shape).curveTo(1226.2, 1085.33, 1222.73, 1069.25,
				1218.35, 1053.37);
		((GeneralPath) shape).curveTo(1217.5, 1050.28, 1218.02, 1049.46,
				1221.38, 1049.54);
		((GeneralPath) shape).curveTo(1225.0, 1049.63, 1228.67, 1048.9, 1232.25,
				1048.23);
		((GeneralPath) shape).curveTo(1248.21, 1045.24, 1262.09, 1037.06,
				1276.14, 1029.68);
		((GeneralPath) shape).curveTo(1311.66, 1011.02, 1339.11, 984.221,
				1355.73, 947.238);
		((GeneralPath) shape).curveTo(1367.28, 921.553, 1370.84, 894.501,
				1370.26, 866.444);

		g.setPaint(new Color(0x6E4100));
		g.fill(shape);

		// _0_0_1
		shape = new GeneralPath();
		((GeneralPath) shape).moveTo(795.331, 1001.59);
		((GeneralPath) shape).curveTo(796.186, 965.837, 797.055, 930.082,
				797.886, 894.326);
		((GeneralPath) shape).curveTo(798.087, 885.673, 798.274, 877.016,
				798.234, 868.362);
		((GeneralPath) shape).curveTo(798.221, 865.5, 799.169, 864.721, 801.963,
				864.67);
		((GeneralPath) shape).curveTo(817.599, 864.386, 833.234, 863.97,
				848.862, 863.426);
		((GeneralPath) shape).curveTo(851.296, 863.341, 852.898, 863.972,
				854.385, 865.84);
		((GeneralPath) shape).curveTo(856.381, 868.348, 858.885, 870.269,
				862.142, 870.977);
		((GeneralPath) shape).curveTo(863.298, 871.228, 864.413, 871.618,
				864.931, 872.826);
		((GeneralPath) shape).curveTo(869.827, 884.266, 880.297, 885.195,
				890.416, 885.412);
		((GeneralPath) shape).curveTo(899.133, 885.6, 907.427, 882.678, 914.854,
				877.804);
		((GeneralPath) shape).curveTo(916.181, 876.934, 917.274, 876.133,
				919.311, 876.695);
		((GeneralPath) shape).curveTo(934.671, 880.935, 950.422, 881.972,
				966.271, 881.644);
		((GeneralPath) shape).curveTo(969.363, 881.579, 970.225, 881.974,
				969.73, 885.393);
		((GeneralPath) shape).curveTo(964.43, 922.001, 972.2, 955.358, 994.506,
				985.223);
		((GeneralPath) shape).curveTo(998.818, 990.997, 1004.22, 995.559,
				1008.94, 1000.84);
		((GeneralPath) shape).curveTo(939.857, 1000.85, 870.775, 1000.85,
				801.694, 1000.88);
		((GeneralPath) shape).curveTo(799.56, 1000.88, 797.348, 1000.444,
				795.331, 1001.59);

		g.setPaint(new Color(0xFFA89A));
		g.fill(shape);

		// _0_0_2
		shape = new GeneralPath();
		((GeneralPath) shape).moveTo(1219.18, 668.876);
		((GeneralPath) shape).curveTo(1220.76, 663.1, 1219.68, 660.088, 1214.88,
				657.696);
		((GeneralPath) shape).curveTo(1183.45, 642.029, 1164.0, 616.155, 1152.2,
				583.888);
		((GeneralPath) shape).curveTo(1145.64, 565.952, 1143.09, 547.262,
				1141.59, 528.253);
		((GeneralPath) shape).curveTo(1140.83, 518.59, 1142.86, 510.475, 1147.4,
				502.217);
		((GeneralPath) shape).curveTo(1153.59, 490.978, 1157.89, 478.862,
				1161.62, 466.597);
		((GeneralPath) shape).curveTo(1162.53, 463.63, 1163.59, 463.027,
				1166.47, 464.1);
		((GeneralPath) shape).curveTo(1212.04, 481.031, 1242.74, 512.164,
				1257.07, 558.887);
		((GeneralPath) shape).curveTo(1263.87, 581.06, 1265.83, 603.864,
				1265.15, 626.938);
		((GeneralPath) shape).curveTo(1265.02, 631.357, 1266.26, 634.761,
				1270.16, 637.018);
		((GeneralPath) shape).curveTo(1266.78, 650.301, 1260.13, 661.113,
				1247.31, 667.271);
		((GeneralPath) shape).curveTo(1238.16, 671.673, 1228.71, 671.085,
				1219.18, 668.876);

		g.setPaint(new Color(0xD7AA61));
		g.fill(shape);

		// _0_0_3
		shape = new GeneralPath();
		((GeneralPath) shape).moveTo(1087.21, 1128.1);
		((GeneralPath) shape).curveTo(1084.19, 1109.06, 1084.88, 1089.96,
				1086.52, 1070.88);
		((GeneralPath) shape).curveTo(1087.18, 1063.26, 1088.35, 1055.69,
				1089.23, 1048.09);
		((GeneralPath) shape).curveTo(1089.61, 1044.83, 1090.34, 1043.26,
				1094.5, 1044.34);
		((GeneralPath) shape).curveTo(1124.16, 1052.03, 1154.27, 1055.55,
				1184.93, 1052.82);
		((GeneralPath) shape).curveTo(1189.23, 1052.44, 1193.5, 1051.69,
				1197.75, 1050.97);
		((GeneralPath) shape).curveTo(1199.84, 1050.62, 1201.24, 1050.87,
				1201.85, 1053.23);
		((GeneralPath) shape).curveTo(1208.05, 1077.4, 1213.89, 1101.63,
				1214.93, 1126.71);
		((GeneralPath) shape).curveTo(1214.96, 1127.37, 1214.84, 1128.03,
				1214.79, 1128.69);
		((GeneralPath) shape).curveTo(1212.99, 1128.49, 1211.19, 1128.11,
				1209.39, 1128.11);
		((GeneralPath) shape).curveTo(1168.66, 1128.08, 1127.94, 1128.09,
				1087.21, 1128.1);

		g.setPaint(new Color(0x87C9D5));
		g.fill(shape);

		// _0_0_4
		shape = new GeneralPath();
		((GeneralPath) shape).moveTo(534.387, 348.069);
		((GeneralPath) shape).curveTo(531.383, 348.211, 528.801, 347.241,
				526.823, 344.96);
		((GeneralPath) shape).curveTo(513.422, 329.507, 499.968, 314.1, 486.705,
				298.53);
		((GeneralPath) shape).curveTo(482.748, 293.885, 483.365, 287.824,
				487.547, 284.233);
		((GeneralPath) shape).curveTo(491.895, 280.499, 498.084, 281.021,
				502.191, 285.744);
		((GeneralPath) shape).curveTo(515.176, 300.677, 528.118, 315.647,
				540.971, 330.694);
		((GeneralPath) shape).curveTo(545.354, 335.826, 545.272, 341.436,
				541.142, 345.403);
		((GeneralPath) shape).curveTo(539.262, 347.209, 537.046, 348.214,
				534.387, 348.069);

		g.setPaint(new Color(0xEF6F63));
		g.fill(shape);

		// _0_0_5
		shape = new GeneralPath();
		((GeneralPath) shape).moveTo(441.609, 362.798);
		((GeneralPath) shape).curveTo(442.254, 362.938, 443.748, 363.129,
				445.154, 363.589);
		((GeneralPath) shape).curveTo(462.692, 369.329, 480.229, 375.072,
				497.739, 380.899);
		((GeneralPath) shape).curveTo(503.113, 382.688, 505.604, 386.284,
				505.306, 391.267);
		((GeneralPath) shape).curveTo(505.022, 396.011, 501.771, 399.477,
				496.948, 400.535);
		((GeneralPath) shape).curveTo(495.001, 400.963, 493.267, 400.426,
				491.579, 399.878);
		((GeneralPath) shape).curveTo(473.715, 394.081, 455.859, 388.259,
				438.05, 382.298);
		((GeneralPath) shape).curveTo(432.5, 380.44, 430.198, 376.214, 431.142,
				370.623);
		((GeneralPath) shape).curveTo(431.902, 366.119, 435.913, 362.86,
				441.609, 362.798);

		g.fill(shape);

		// _0_0_6
		shape = new GeneralPath();
		((GeneralPath) shape).moveTo(450.494, 462.163);
		((GeneralPath) shape).curveTo(445.837, 462.163, 441.18, 462.214,
				436.525, 462.149);
		((GeneralPath) shape).curveTo(430.873, 462.071, 426.889, 458.507,
				426.368, 453.187);
		((GeneralPath) shape).curveTo(425.865, 448.055, 429.319, 443.456,
				434.811, 442.62);
		((GeneralPath) shape).curveTo(438.401, 442.074, 442.095, 442.168,
				445.745, 442.067);
		((GeneralPath) shape).curveTo(459.203, 441.692, 472.661, 441.329,
				486.121, 441.015);
		((GeneralPath) shape).curveTo(492.722, 440.861, 497.072, 444.56,
				497.324, 450.396);
		((GeneralPath) shape).curveTo(497.599, 456.777, 493.808, 460.7, 486.889,
				460.961);
		((GeneralPath) shape).curveTo(480.741, 461.192, 474.586, 461.285,
				468.433, 461.35);
		((GeneralPath) shape).curveTo(462.455, 461.413, 456.476, 461.363,
				450.497, 461.363);
		((GeneralPath) shape).curveTo(450.496, 461.63, 450.495, 461.896,
				450.494, 462.163);

		g.fill(shape);

		// _0_0_7
		shape = new GeneralPath();
		((GeneralPath) shape).moveTo(658.316, 421.898);
		((GeneralPath) shape).curveTo(650.48, 378.608, 654.401, 336.091,
				666.511, 294.063);
		((GeneralPath) shape).curveTo(677.806, 254.861, 695.328, 219.013,
				722.823, 188.48);
		((GeneralPath) shape).curveTo(749.086, 159.314, 781.107, 138.771,
				817.702, 124.991);
		((GeneralPath) shape).curveTo(821.281, 123.643, 821.899, 125.484,
				823.086, 127.771);
		((GeneralPath) shape).curveTo(840.599, 161.519, 862.207, 192.367,
				888.721, 219.67);
		((GeneralPath) shape).curveTo(914.011, 245.712, 943.218, 266.277,
				975.756, 282.398);
		((GeneralPath) shape).curveTo(1017.52, 303.091, 1059.99, 321.891,
				1105.05, 334.318);
		((GeneralPath) shape).curveTo(1120.78, 338.659, 1136.7, 342.173,
				1153.05, 343.107);
		((GeneralPath) shape).curveTo(1156.8, 343.321, 1158.04, 344.648,
				1158.34, 348.386);
		((GeneralPath) shape).curveTo(1160.16, 371.021, 1159.91, 393.563,
				1156.19, 416.01);
		((GeneralPath) shape).curveTo(1152.25, 415.382, 1151.55, 411.628,
				1149.72, 409.087);
		((GeneralPath) shape).curveTo(1141.16, 397.174, 1129.99, 389.65,
				1115.37, 387.095);
		((GeneralPath) shape).curveTo(1102.6, 384.864, 1090.99, 388.09, 1080.64,
				394.875);
		((GeneralPath) shape).curveTo(1061.52, 407.399, 1050.38, 425.265,
				1049.54, 448.378);
		((GeneralPath) shape).curveTo(1048.78, 469.602, 1062.19, 488.353,
				1082.22, 495.702);
		((GeneralPath) shape).curveTo(1096.91, 501.09, 1111.77, 503.575,
				1127.09, 498.15);
		((GeneralPath) shape).curveTo(1128.34, 497.707, 1130.17, 496.449,
				1131.12, 498.845);
		((GeneralPath) shape).curveTo(1111.94, 537.136, 1083.19, 566.004,
				1045.26, 585.707);
		((GeneralPath) shape).curveTo(1015.21, 601.318, 982.947, 609.324,
				949.46, 613.027);
		((GeneralPath) shape).curveTo(937.045, 614.399, 924.602, 615.017,
				912.131, 615.459);
		((GeneralPath) shape).curveTo(908.733, 615.579, 908.016, 614.405,
				908.062, 611.252);
		((GeneralPath) shape).curveTo(908.233, 599.594, 908.167, 587.932,
				908.117, 576.273);
		((GeneralPath) shape).curveTo(908.085, 568.854, 905.081, 565.831,
				897.793, 566.101);
		((GeneralPath) shape).curveTo(848.087, 567.945, 798.384, 569.846,
				748.68, 571.725);
		((GeneralPath) shape).curveTo(746.85, 571.794, 745.105, 571.801,
				743.457, 570.603);
		((GeneralPath) shape).curveTo(716.407, 550.925, 695.653, 525.998,
				681.058, 495.921);
		((GeneralPath) shape).curveTo(680.916, 495.63, 680.908, 495.274,
				680.837, 494.949);
		((GeneralPath) shape).curveTo(682.761, 493.885, 684.406, 495.105,
				686.042, 495.718);
		((GeneralPath) shape).curveTo(694.053, 498.722, 702.356, 500.889,
				710.826, 501.219);
		((GeneralPath) shape).curveTo(720.358, 501.59, 729.874, 500.145,
				738.005, 494.517);
		((GeneralPath) shape).curveTo(750.609, 485.794, 760.408, 474.754,
				765.32, 459.887);
		((GeneralPath) shape).curveTo(767.623, 452.916, 768.003, 445.768,
				766.564, 438.704);
		((GeneralPath) shape).curveTo(763.281, 422.589, 756.053, 408.4, 743.272,
				397.815);
		((GeneralPath) shape).curveTo(722.98, 381.008, 695.836, 383.41, 676.717,
				400.756);
		((GeneralPath) shape).curveTo(671.142, 405.815, 666.245, 411.445,
				662.342, 417.932);
		((GeneralPath) shape).curveTo(661.384, 419.524, 660.83, 421.781,
				658.316, 421.898);

		g.setPaint(new Color(0xFEF8EA));
		g.fill(shape);

		// _0_0_8
		shape = new GeneralPath();
		((GeneralPath) shape).moveTo(765.992, 59.151);
		((GeneralPath) shape).curveTo(769.148, 59.052, 772.309, 59.038, 775.458,
				58.836);
		((GeneralPath) shape).curveTo(780.129, 58.536, 783.479, 55.744, 783.098,
				51.411);
		((GeneralPath) shape).curveTo(782.731, 47.237, 785.256, 45.825, 787.92,
				44.199);
		((GeneralPath) shape).curveTo(803.897, 34.445, 821.532, 29.077, 839.624,
				25.109);
		((GeneralPath) shape).curveTo(869.495, 18.559, 899.742, 15.648, 930.312,
				17.019);
		((GeneralPath) shape).curveTo(954.211, 18.09, 977.395, 23.354, 1000.14,
				30.46);
		((GeneralPath) shape).curveTo(1058.08, 48.564, 1108.11, 79.606, 1149.43,
				124.066);
		((GeneralPath) shape).curveTo(1179.17, 156.061, 1202.93, 192.083,
				1217.28, 233.663);
		((GeneralPath) shape).curveTo(1232.74, 278.484, 1230.35, 322.268,
				1208.16, 364.569);
		((GeneralPath) shape).curveTo(1207.86, 365.138, 1207.48, 365.659,
				1206.88, 366.589);
		((GeneralPath) shape).curveTo(1199.33, 357.149, 1189.51, 353.343,
				1177.88, 353.993);
		((GeneralPath) shape).curveTo(1175.66, 354.117, 1174.77, 353.167,
				1174.89, 351.146);
		((GeneralPath) shape).curveTo(1175.05, 348.46, 1172.13, 345.263,
				1175.97, 343.171);
		((GeneralPath) shape).curveTo(1181.66, 340.076, 1183.29, 337.405,
				1181.98, 332.865);
		((GeneralPath) shape).curveTo(1180.8, 328.744, 1177.13, 327.329,
				1170.99, 327.658);
		((GeneralPath) shape).curveTo(1155.08, 328.509, 1139.48, 325.986,
				1124.04, 322.481);
		((GeneralPath) shape).curveTo(1086.06, 313.86, 1050.11, 299.498,
				1014.83, 283.323);
		((GeneralPath) shape).curveTo(993.804, 273.68, 972.876, 263.774,
				953.243, 251.453);
		((GeneralPath) shape).curveTo(920.097, 230.653, 892.81, 203.612,
				869.661, 172.224);
		((GeneralPath) shape).curveTo(853.399, 150.175, 839.681, 126.638,
				828.195, 101.782);
		((GeneralPath) shape).curveTo(825.761, 96.515, 822.188, 94.65, 817.473,
				96.127);
		((GeneralPath) shape).curveTo(813.482, 97.378, 811.623, 101.243,
				812.963, 106.731);
		((GeneralPath) shape).curveTo(813.776, 110.06, 811.557, 110.268,
				809.593, 111.015);
		((GeneralPath) shape).curveTo(786.274, 119.878, 764.491, 131.524,
				744.597, 146.651);
		((GeneralPath) shape).curveTo(727.0, 160.032, 711.584, 175.566, 698.088,
				193.053);
		((GeneralPath) shape).curveTo(696.719, 194.827, 695.927, 197.235,
				693.451, 198.005);
		((GeneralPath) shape).curveTo(690.955, 199.08, 689.357, 197.218,
				687.638, 196.089);
		((GeneralPath) shape).curveTo(674.023, 187.145, 667.056, 173.771,
				663.114, 158.54);
		((GeneralPath) shape).curveTo(661.317, 151.599, 660.536, 144.481,
				660.866, 137.259);
		((GeneralPath) shape).curveTo(661.009, 134.131, 661.887, 131.455,
				663.865, 129.006);
		((GeneralPath) shape).curveTo(687.55, 99.682, 716.745, 77.671, 751.415,
				62.905);
		((GeneralPath) shape).curveTo(754.327, 61.664, 757.352, 60.766, 760.425,
				60.034);
		((GeneralPath) shape).curveTo(762.307, 59.918, 764.167, 59.646, 765.992,
				59.151);

		g.setPaint(new Color(0xD7AA61));
		g.fill(shape);

		// _0_0_9
		shape = new GeneralPath();
		((GeneralPath) shape).moveTo(142.241, 720.865);
		((GeneralPath) shape).curveTo(163.869, 709.927, 186.826, 703.82,
				210.935, 701.719);
		((GeneralPath) shape).curveTo(241.001, 699.099, 270.419, 702.173,
				299.021, 711.837);
		((GeneralPath) shape).curveTo(334.501, 723.825, 363.094, 745.29,
				385.188, 775.477);
		((GeneralPath) shape).curveTo(385.545, 775.965, 386.209, 776.399,
				385.572, 777.438);
		((GeneralPath) shape).curveTo(371.488, 765.707, 356.351, 755.607,
				339.993, 747.38);
		((GeneralPath) shape).curveTo(333.147, 743.937, 326.118, 740.91,
				318.914, 738.316);
		((GeneralPath) shape).curveTo(316.656, 737.503, 315.422, 736.858,
				315.694, 733.86);
		((GeneralPath) shape).curveTo(316.082, 729.579, 313.744, 726.532,
				309.214, 725.837);
		((GeneralPath) shape).curveTo(304.435, 725.105, 301.172, 727.146,
				300.032, 732.098);
		((GeneralPath) shape).curveTo(296.704, 746.559, 292.304, 760.646,
				286.545, 774.335);
		((GeneralPath) shape).curveTo(285.017, 777.966, 284.073, 779.254,
				280.061, 776.551);
		((GeneralPath) shape).curveTo(269.914, 769.715, 258.769, 771.351,
				250.305, 780.249);
		((GeneralPath) shape).curveTo(248.744, 781.89, 247.334, 783.674,
				245.378, 785.946);
		((GeneralPath) shape).curveTo(244.067, 773.404, 243.279, 761.521,
				241.161, 749.807);
		((GeneralPath) shape).curveTo(240.539, 746.373, 239.982, 742.919,
				239.154, 739.533);
		((GeneralPath) shape).curveTo(237.974, 734.71, 233.919, 732.079,
				229.505, 733.037);
		((GeneralPath) shape).curveTo(225.128, 733.986, 222.459, 738.201,
				223.47, 743.013);
		((GeneralPath) shape).curveTo(228.18, 765.436, 229.753, 788.105,
				229.251, 810.978);
		((GeneralPath) shape).curveTo(228.928, 825.719, 229.074, 825.609,
				214.599, 826.919);
		((GeneralPath) shape).curveTo(205.065, 827.781, 195.967, 830.347,
				187.614, 835.178);
		((GeneralPath) shape).curveTo(175.14, 842.393, 171.502, 855.633,
				178.488, 868.234);
		((GeneralPath) shape).curveTo(182.991, 876.355, 189.185, 883.103,
				196.022, 889.237);
		((GeneralPath) shape).curveTo(198.893, 891.812, 200.049, 893.397,
				196.244, 896.276);
		((GeneralPath) shape).curveTo(191.201, 900.093, 188.92, 905.858,
				188.435, 911.954);
		((GeneralPath) shape).curveTo(187.501, 923.68, 189.739, 934.842,
				196.244, 944.853);
		((GeneralPath) shape).curveTo(199.299, 949.555, 203.337, 953.569,
				208.658, 955.287);
		((GeneralPath) shape).curveTo(212.795, 956.623, 213.334, 958.966,
				213.393, 962.616);
		((GeneralPath) shape).curveTo(213.623, 976.942, 213.91, 991.226,
				210.235, 1005.28);
		((GeneralPath) shape).curveTo(203.619, 1030.59, 187.986, 1046.61,
				162.062, 1051.42);
		((GeneralPath) shape).curveTo(136.734, 1056.12, 111.729, 1054.72,
				87.497, 1045.21);
		((GeneralPath) shape).curveTo(86.753, 1044.91, 86.085, 1044.43, 85.381,
				1044.04);
		((GeneralPath) shape).curveTo(82.122, 1041.2, 78.098, 1039.51, 74.74,
				1036.75);
		((GeneralPath) shape).curveTo(56.69, 1021.95, 45.872, 1002.61, 39.387,
				980.604);
		((GeneralPath) shape).curveTo(35.521, 967.485, 33.36, 954.082, 32.833,
				940.332);
		((GeneralPath) shape).curveTo(30.37, 876.094, 50.458, 819.201, 88.873,
				768.421);
		((GeneralPath) shape).curveTo(101.967, 751.113, 117.177, 735.73,
				136.166, 724.616);
		((GeneralPath) shape).curveTo(138.136, 723.283, 140.313, 722.276,
				142.241, 720.865);

		g.setPaint(new Color(0xDCAE53));
		g.fill(shape);

		// _0_0_10
		shape = new GeneralPath();
		((GeneralPath) shape).moveTo(836.963, 786.921);
		((GeneralPath) shape).curveTo(839.845, 793.017, 843.785, 798.284,
				849.463, 802.333);
		((GeneralPath) shape).curveTo(845.041, 805.925, 841.422, 809.8, 839.508,
				814.948);
		((GeneralPath) shape).curveTo(836.555, 822.887, 839.296, 829.995,
				847.048, 835.705);
		((GeneralPath) shape).curveTo(848.267, 836.602, 852.105, 836.758,
				850.083, 839.406);
		((GeneralPath) shape).curveTo(847.988, 842.148, 849.734, 847.546,
				843.33, 847.585);
		((GeneralPath) shape).curveTo(823.198, 847.707, 803.07, 848.489,
				782.942, 849.065);
		((GeneralPath) shape).curveTo(741.025, 850.265, 699.108, 851.496,
				657.191, 852.711);
		((GeneralPath) shape).curveTo(656.526, 852.731, 655.848, 852.647,
				655.194, 852.738);
		((GeneralPath) shape).curveTo(647.54, 853.807, 642.244, 852.874,
				639.073, 843.707);
		((GeneralPath) shape).curveTo(635.518, 833.432, 625.383, 829.561,
				612.906, 831.159);
		((GeneralPath) shape).curveTo(609.417, 831.606, 608.559, 830.939,
				608.012, 827.473);
		((GeneralPath) shape).curveTo(606.879, 820.298, 601.242, 815.482,
				593.304, 814.852);
		((GeneralPath) shape).curveTo(589.319, 814.536, 588.521, 813.025,
				588.562, 809.347);
		((GeneralPath) shape).curveTo(589.015, 768.882, 589.298, 728.415,
				589.64, 687.948);
		((GeneralPath) shape).curveTo(589.857, 662.136, 590.085, 636.323,
				590.331, 610.511);
		((GeneralPath) shape).curveTo(590.376, 605.851, 590.712, 601.188,
				590.575, 596.537);
		((GeneralPath) shape).curveTo(590.486, 593.527, 591.783, 593.091,
				594.42, 593.006);
		((GeneralPath) shape).curveTo(625.852, 591.993, 657.28, 590.877,
				688.708, 589.747);
		((GeneralPath) shape).curveTo(732.275, 588.181, 775.841, 586.568,
				819.408, 584.998);
		((GeneralPath) shape).curveTo(842.688, 584.158, 865.971, 583.405,
				889.247, 582.485);
		((GeneralPath) shape).curveTo(891.481, 582.397, 892.367, 582.876,
				892.153, 585.096);
		((GeneralPath) shape).curveTo(892.089, 585.756, 892.144, 586.428,
				892.144, 587.095);
		((GeneralPath) shape).curveTo(892.144, 642.076, 892.144, 697.058,
				892.144, 752.04);
		((GeneralPath) shape).curveTo(892.144, 753.52, 892.144, 755.0, 892.144,
				756.839);
		((GeneralPath) shape).curveTo(882.645, 754.164, 873.361, 754.727,
				864.091, 755.017);
		((GeneralPath) shape).curveTo(863.863, 754.765, 863.625, 754.491,
				863.595, 754.175);
		((GeneralPath) shape).curveTo(862.927, 747.065, 860.944, 745.868,
				854.158, 748.452);
		((GeneralPath) shape).curveTo(851.97, 749.285, 850.088, 750.698,
				847.979, 751.656);
		((GeneralPath) shape).curveTo(844.547, 753.215, 842.915, 752.174,
				843.845, 748.62);
		((GeneralPath) shape).curveTo(846.67, 737.828, 841.981, 729.578,
				835.433, 721.828);
		((GeneralPath) shape).curveTo(830.378, 715.845, 830.314, 713.412,
				835.025, 706.792);
		((GeneralPath) shape).curveTo(837.864, 705.956, 838.912, 703.827,
				839.114, 701.094);
		((GeneralPath) shape).curveTo(839.178, 700.637, 839.286, 700.189,
				839.408, 699.745);
		((GeneralPath) shape).curveTo(839.675, 698.849, 839.833, 697.931,
				839.955, 697.002);
		((GeneralPath) shape).curveTo(842.14, 690.172, 843.769, 683.223,
				843.874, 676.026);
		((GeneralPath) shape).curveTo(843.95, 670.871, 843.374, 665.642,
				841.364, 660.944);
		((GeneralPath) shape).curveTo(838.421, 654.066, 826.704, 652.379,
				821.626, 657.857);
		((GeneralPath) shape).curveTo(815.488, 664.478, 813.282, 672.988,
				811.661, 681.43);
		((GeneralPath) shape).curveTo(810.412, 687.932, 808.729, 694.41,
				808.351, 701.086);
		((GeneralPath) shape).curveTo(808.204, 703.684, 806.699, 704.987,
				804.005, 704.675);
		((GeneralPath) shape).curveTo(799.189, 704.115, 794.378, 704.003,
				789.551, 704.631);
		((GeneralPath) shape).curveTo(786.376, 705.044, 784.852, 703.23,
				784.667, 700.332);
		((GeneralPath) shape).curveTo(784.263, 693.988, 782.213, 687.943,
				781.361, 681.727);
		((GeneralPath) shape).curveTo(780.531, 675.679, 778.604, 670.09,
				776.528, 664.476);
		((GeneralPath) shape).curveTo(775.775, 662.439, 774.834, 660.389,
				773.329, 658.858);
		((GeneralPath) shape).curveTo(770.178, 655.654, 766.693, 651.781,
				761.819, 653.427);
		((GeneralPath) shape).curveTo(756.554, 655.205, 751.939, 657.952,
				750.212, 664.527);
		((GeneralPath) shape).curveTo(747.693, 674.121, 750.94, 682.513, 753.67,
				691.174);
		((GeneralPath) shape).curveTo(755.873, 698.164, 758.341, 705.066,
				760.74, 711.989);
		((GeneralPath) shape).curveTo(761.889, 715.305, 761.667, 718.201,
				759.287, 720.805);
		((GeneralPath) shape).curveTo(756.782, 723.547, 755.462, 727.045,
				753.324, 730.014);
		((GeneralPath) shape).curveTo(752.126, 731.802, 751.589, 733.846,
				751.079, 735.899);
		((GeneralPath) shape).curveTo(750.155, 742.188, 749.952, 748.456,
				751.155, 754.749);
		((GeneralPath) shape).curveTo(751.818, 758.214, 750.89, 758.962, 747.46,
				758.056);
		((GeneralPath) shape).curveTo(745.838, 757.628, 744.389, 756.792,
				742.926, 756.001);
		((GeneralPath) shape).curveTo(740.844, 754.874, 738.645, 754.16,
				736.255, 754.209);
		((GeneralPath) shape).curveTo(730.936, 754.319, 728.425, 758.531,
				731.121, 763.135);
		((GeneralPath) shape).curveTo(734.597, 769.071, 739.638, 773.708,
				744.402, 778.576);
		((GeneralPath) shape).curveTo(751.137, 785.457, 758.419, 791.702,
				766.002, 797.607);
		((GeneralPath) shape).curveTo(768.272, 799.375, 767.796, 801.898,
				767.592, 804.067);
		((GeneralPath) shape).curveTo(766.705, 813.507, 766.373, 822.968,
				766.055, 832.431);
		((GeneralPath) shape).curveTo(767.29, 836.789, 768.095, 837.145,
				773.921, 835.892);
		((GeneralPath) shape).curveTo(782.337, 834.55, 790.602, 837.61, 799.046,
				836.618);
		((GeneralPath) shape).curveTo(806.274, 835.769, 813.561, 836.002,
				820.839, 836.437);
		((GeneralPath) shape).curveTo(825.029, 836.687, 826.453, 835.131,
				826.586, 830.808);
		((GeneralPath) shape).curveTo(826.662, 828.323, 826.281, 825.843,
				826.335, 823.354);
		((GeneralPath) shape).curveTo(826.799, 821.005, 827.094, 818.652,
				826.423, 816.287);
		((GeneralPath) shape).curveTo(826.223, 809.846, 826.796, 803.416,
				826.582, 796.956);
		((GeneralPath) shape).curveTo(826.43, 792.39, 831.351, 788.092, 836.963,
				786.921);

		g.setPaint(new Color(0xFEFAF9));
		g.fill(shape);

		// _0_0_11
		shape = new GeneralPath();
		((GeneralPath) shape).moveTo(1079.98, 675.085);
		((GeneralPath) shape).curveTo(1094.88, 676.179, 1109.34, 679.671,
				1122.6, 686.254);
		((GeneralPath) shape).curveTo(1128.46, 689.162, 1133.44, 689.73,
				1139.53, 688.953);
		((GeneralPath) shape).curveTo(1163.23, 685.928, 1186.3, 690.025,
				1208.97, 696.441);
		((GeneralPath) shape).curveTo(1244.37, 706.464, 1275.54, 724.271,
				1302.07, 749.745);
		((GeneralPath) shape).curveTo(1329.14, 775.745, 1347.02, 807.02,
				1352.54, 844.481);
		((GeneralPath) shape).curveTo(1358.8, 886.909, 1352.77, 927.137,
				1328.32, 963.331);
		((GeneralPath) shape).curveTo(1310.28, 990.027, 1285.37, 1008.48,
				1256.28, 1021.66);
		((GeneralPath) shape).curveTo(1249.02, 1024.96, 1242.12, 1029.07,
				1234.36, 1031.21);
		((GeneralPath) shape).curveTo(1229.07, 1032.67, 1223.81, 1033.79,
				1218.2, 1033.19);
		((GeneralPath) shape).curveTo(1211.35, 1032.46, 1207.29, 1028.78,
				1205.15, 1022.55);
		((GeneralPath) shape).curveTo(1202.37, 1014.47, 1202.58, 1006.11,
				1203.36, 997.819);
		((GeneralPath) shape).curveTo(1204.58, 984.709, 1207.82, 971.962,
				1211.19, 959.262);
		((GeneralPath) shape).curveTo(1211.86, 956.754, 1213.04, 955.018,
				1215.38, 953.516);
		((GeneralPath) shape).curveTo(1226.94, 946.067, 1230.34, 934.23,
				1232.13, 921.521);
		((GeneralPath) shape).curveTo(1233.25, 913.61, 1230.07, 906.147,
				1230.18, 898.365);
		((GeneralPath) shape).curveTo(1230.2, 896.575, 1229.14, 895.134,
				1227.75, 894.175);
		((GeneralPath) shape).curveTo(1217.58, 887.155, 1212.84, 876.551,
				1208.82, 865.503);
		((GeneralPath) shape).curveTo(1202.13, 847.084, 1199.05, 827.903,
				1197.21, 808.496);
		((GeneralPath) shape).curveTo(1196.81, 804.174, 1195.26, 800.98, 1190.9,
				800.061);
		((GeneralPath) shape).curveTo(1186.38, 799.108, 1183.28, 801.188,
				1181.34, 805.392);
		((GeneralPath) shape).curveTo(1180.03, 808.251, 1178.58, 811.12,
				1176.74, 813.655);
		((GeneralPath) shape).curveTo(1167.93, 825.763, 1154.86, 825.945,
				1145.37, 814.245);
		((GeneralPath) shape).curveTo(1138.45, 805.709, 1135.36, 795.556,
				1133.14, 785.072);
		((GeneralPath) shape).curveTo(1130.18, 771.155, 1129.44, 757.055,
				1129.94, 742.868);
		((GeneralPath) shape).curveTo(1130.0, 741.371, 1130.11, 739.846, 1129.9,
				738.375);
		((GeneralPath) shape).curveTo(1129.16, 733.107, 1123.99, 729.66,
				1119.31, 731.716);
		((GeneralPath) shape).curveTo(1108.35, 736.524, 1096.77, 739.66,
				1085.92, 744.798);
		((GeneralPath) shape).curveTo(1067.91, 753.329, 1051.31, 763.961,
				1036.03, 776.71);
		((GeneralPath) shape).curveTo(1029.85, 769.643, 1029.16, 759.891,
				1034.73, 752.41);
		((GeneralPath) shape).curveTo(1042.41, 742.108, 1053.65, 738.25,
				1065.67, 735.981);
		((GeneralPath) shape).curveTo(1065.99, 735.922, 1066.32, 736.083,
				1066.65, 736.141);
		((GeneralPath) shape).curveTo(1067.01, 736.205, 1067.27, 736.364,
				1067.95, 737.735);
		((GeneralPath) shape).curveTo(1058.76, 728.965, 1051.04, 720.472,
				1047.42, 709.156);
		((GeneralPath) shape).curveTo(1043.63, 697.326, 1048.14, 687.127,
				1059.06, 680.962);
		((GeneralPath) shape).curveTo(1065.61, 677.267, 1072.68, 675.872,
				1079.98, 675.085);

		g.setPaint(new Color(0xC9A76F));
		g.fill(shape);

		// _0_0_12
		shape = new GeneralPath();
		((GeneralPath) shape).moveTo(1183.64, 830.322);
		((GeneralPath) shape).curveTo(1186.21, 845.193, 1189.19, 859.131,
				1194.2, 872.539);
		((GeneralPath) shape).curveTo(1196.06, 877.523, 1198.07, 882.458,
				1200.84, 887.019);
		((GeneralPath) shape).curveTo(1202.09, 889.081, 1202.1, 889.893,
				1199.39, 890.572);
		((GeneralPath) shape).curveTo(1193.48, 892.054, 1191.04, 895.709,
				1192.18, 900.48);
		((GeneralPath) shape).curveTo(1193.25, 904.923, 1197.05, 906.954,
				1202.75, 906.127);
		((GeneralPath) shape).curveTo(1212.59, 904.698, 1216.55, 908.176,
				1216.25, 917.986);
		((GeneralPath) shape).curveTo(1216.11, 922.356, 1215.19, 926.589,
				1213.67, 930.651);
		((GeneralPath) shape).curveTo(1210.01, 940.408, 1203.22, 943.781,
				1193.09, 941.059);
		((GeneralPath) shape).curveTo(1191.33, 940.587, 1189.58, 939.973,
				1187.79, 939.759);
		((GeneralPath) shape).curveTo(1183.56, 939.257, 1180.53, 941.202,
				1179.35, 945.176);
		((GeneralPath) shape).curveTo(1178.13, 949.316, 1179.57, 952.825,
				1183.58, 954.758);
		((GeneralPath) shape).curveTo(1185.66, 955.756, 1187.95, 956.678,
				1190.2, 956.825);
		((GeneralPath) shape).curveTo(1194.77, 957.122, 1194.76, 959.152,
				1193.77, 962.888);
		((GeneralPath) shape).curveTo(1189.5, 978.836, 1186.35, 994.962,
				1187.06, 1011.63);
		((GeneralPath) shape).curveTo(1187.41, 1019.88, 1189.26, 1027.7, 1193.4,
				1035.48);
		((GeneralPath) shape).curveTo(1179.54, 1037.88, 1166.04, 1038.17,
				1152.48, 1037.32);
		((GeneralPath) shape).curveTo(1116.38, 1035.07, 1081.8, 1027.11, 1049.7,
				1009.88);
		((GeneralPath) shape).curveTo(1039.85, 1004.59, 1030.62, 998.368,
				1022.28, 990.886);
		((GeneralPath) shape).curveTo(1021.38, 990.079, 1018.48, 989.196,
				1021.6, 987.454);
		((GeneralPath) shape).curveTo(1035.49, 979.698, 1039.22, 961.027,
				1033.05, 944.385);
		((GeneralPath) shape).curveTo(1026.02, 925.402, 1012.2, 913.195,
				994.151, 905.09);
		((GeneralPath) shape).curveTo(983.283, 900.211, 983.365, 900.102,
				985.399, 888.082);
		((GeneralPath) shape).curveTo(989.957, 861.155, 1001.91, 837.651,
				1019.05, 816.731);
		((GeneralPath) shape).curveTo(1042.98, 787.528, 1072.75, 766.31,
				1108.11, 753.006);
		((GeneralPath) shape).curveTo(1113.67, 750.914, 1113.76, 751.001,
				1113.92, 757.048);
		((GeneralPath) shape).curveTo(1114.42, 775.473, 1116.79, 793.568,
				1124.43, 810.536);
		((GeneralPath) shape).curveTo(1130.39, 823.786, 1139.28, 834.207,
				1154.12, 837.95);
		((GeneralPath) shape).curveTo(1164.93, 840.676, 1174.5, 837.918,
				1183.64, 830.322);

		g.setPaint(new Color(0xFEF8EA));
		g.fill(shape);

		// _0_0_13
		shape = new GeneralPath();
		((GeneralPath) shape).moveTo(348.438, 718.09);
		((GeneralPath) shape).curveTo(328.751, 705.278, 307.426, 696.295,
				284.567, 690.993);
		((GeneralPath) shape).curveTo(282.11, 690.423, 281.331, 689.482,
				281.335, 687.032);
		((GeneralPath) shape).curveTo(281.395, 647.39, 281.411, 607.748,
				281.309, 568.107);
		((GeneralPath) shape).curveTo(281.302, 565.112, 282.436, 564.968,
				284.848, 565.213);
		((GeneralPath) shape).curveTo(335.992, 570.407, 387.14, 575.563,
				438.291, 580.678);
		((GeneralPath) shape).curveTo(482.33, 585.081, 526.37, 589.475, 570.426,
				593.697);
		((GeneralPath) shape).curveTo(573.956, 594.035, 574.747, 595.208,
				574.715, 598.508);
		((GeneralPath) shape).curveTo(574.082, 662.269, 573.565, 726.032,
				572.972, 789.794);
		((GeneralPath) shape).curveTo(572.936, 793.749, 572.47, 797.699,
				572.204, 801.652);
		((GeneralPath) shape).curveTo(568.506, 801.058, 564.809, 800.465,
				561.111, 799.871);
		((GeneralPath) shape).curveTo(559.933, 798.594, 559.332, 797.02,
				559.166, 795.354);
		((GeneralPath) shape).curveTo(558.059, 784.249, 555.743, 773.328,
				554.171, 762.305);
		((GeneralPath) shape).curveTo(553.368, 760.406, 557.384, 759.98,
				555.569, 757.642);
		((GeneralPath) shape).curveTo(555.133, 757.08, 555.066, 756.696,
				553.908, 756.98);
		((GeneralPath) shape).curveTo(550.544, 751.197, 549.807, 744.543,
				547.763, 738.325);
		((GeneralPath) shape).curveTo(546.728, 735.176, 549.721, 734.766,
				551.166, 733.849);
		((GeneralPath) shape).curveTo(547.303, 733.867, 544.689, 730.808,
				543.737, 724.518);
		((GeneralPath) shape).curveTo(543.817, 724.041, 544.026, 723.63,
				544.369, 723.29);
		((GeneralPath) shape).curveTo(547.372, 720.739, 546.373, 718.222,
				543.904, 716.25);
		((GeneralPath) shape).curveTo(541.621, 714.427, 540.406, 712.353,
				540.385, 709.476);
		((GeneralPath) shape).curveTo(540.37, 707.405, 539.589, 705.567,
				538.346, 703.946);
		((GeneralPath) shape).curveTo(531.79, 695.394, 525.622, 686.533,
				518.277, 678.605);
		((GeneralPath) shape).curveTo(516.903, 677.122, 515.331, 675.662,
				513.436, 675.163);
		((GeneralPath) shape).curveTo(504.015, 672.683, 495.488, 667.593,
				485.409, 666.743);
		((GeneralPath) shape).curveTo(479.914, 666.28, 475.216, 667.621,
				470.569, 669.387);
		((GeneralPath) shape).curveTo(455.878, 674.968, 444.016, 684.836,
				432.702, 695.433);
		((GeneralPath) shape).curveTo(431.202, 696.836, 429.819, 698.181,
				429.86, 700.437);
		((GeneralPath) shape).curveTo(429.878, 701.459, 429.527, 702.466,
				428.823, 703.189);
		((GeneralPath) shape).curveTo(424.813, 707.305, 422.52, 712.539,
				419.475, 717.286);
		((GeneralPath) shape).curveTo(417.29, 720.692, 415.465, 720.928,
				412.901, 717.824);
		((GeneralPath) shape).curveTo(408.188, 712.118, 402.179, 710.394,
				395.03, 709.482);
		((GeneralPath) shape).curveTo(389.192, 708.737, 383.51, 706.66, 377.441,
				707.052);
		((GeneralPath) shape).curveTo(375.609, 707.17, 373.954, 707.31, 372.187,
				708.112);
		((GeneralPath) shape).curveTo(365.561, 711.118, 358.773, 713.777,
				352.723, 717.917);
		((GeneralPath) shape).curveTo(351.304, 718.888, 349.887, 718.563,
				348.438, 718.09);

		g.setPaint(new Color(0xFEFEFE));
		g.fill(shape);

		// _0_0_14
		shape = new GeneralPath();
		((GeneralPath) shape).moveTo(400.394, 988.702);
		((GeneralPath) shape).curveTo(367.983, 1021.79, 281.873, 1048.52,
				216.097, 1033.36);
		((GeneralPath) shape).curveTo(221.341, 1023.79, 225.164, 1013.77,
				227.206, 1003.13);
		((GeneralPath) shape).curveTo(229.794, 989.642, 230.395, 976.03,
				229.292, 962.377);
		((GeneralPath) shape).curveTo(228.985, 958.587, 229.789, 956.539,
				233.725, 955.928);
		((GeneralPath) shape).curveTo(235.305, 955.683, 236.915, 954.9, 238.257,
				953.988);
		((GeneralPath) shape).curveTo(241.391, 951.859, 242.225, 948.691,
				241.19, 945.195);
		((GeneralPath) shape).curveTo(240.137, 941.636, 237.629, 939.653,
				233.791, 939.725);
		((GeneralPath) shape).curveTo(232.638, 939.747, 231.428, 939.819,
				230.351, 940.183);
		((GeneralPath) shape).curveTo(223.404, 942.527, 216.223, 943.818,
				211.001, 937.438);
		((GeneralPath) shape).curveTo(204.817, 929.883, 202.897, 920.778,
				205.121, 911.152);
		((GeneralPath) shape).curveTo(206.133, 906.772, 210.033, 905.913,
				213.795, 905.959);
		((GeneralPath) shape).curveTo(218.084, 906.012, 222.415, 906.383,
				226.64, 907.118);
		((GeneralPath) shape).curveTo(240.033, 909.448, 250.214, 903.98,
				255.386, 891.43);
		((GeneralPath) shape).curveTo(259.206, 882.161, 259.655, 872.302,
				260.068, 862.521);
		((GeneralPath) shape).curveTo(260.24, 858.43, 261.595, 857.551, 265.311,
				857.865);
		((GeneralPath) shape).curveTo(273.428, 858.551, 281.539, 859.05,
				289.716, 858.076);
		((GeneralPath) shape).curveTo(308.806, 855.802, 318.418, 842.133,
				313.731, 823.475);
		((GeneralPath) shape).curveTo(311.09, 812.959, 305.759, 803.784, 299.14,
				795.353);
		((GeneralPath) shape).curveTo(297.062, 792.706, 296.567, 790.619,
				298.168, 787.437);
		((GeneralPath) shape).curveTo(303.252, 777.33, 306.856, 766.6, 310.573,
				755.935);
		((GeneralPath) shape).curveTo(311.334, 753.752, 311.921, 752.648,
				314.683, 753.787);
		((GeneralPath) shape).curveTo(366.355, 775.079, 405.939, 809.094,
				427.856, 861.535);
		((GeneralPath) shape).curveTo(433.74, 875.614, 436.448, 890.496,
				436.554, 905.807);
		((GeneralPath) shape).curveTo(436.574, 908.697, 436.581, 910.439,
				432.384, 910.201);
		((GeneralPath) shape).curveTo(411.624, 909.024, 391.502, 925.933,
				386.222, 948.443);
		((GeneralPath) shape).curveTo(384.64, 955.185, 384.504, 961.975,
				385.734, 968.762);
		((GeneralPath) shape).curveTo(387.328, 977.555, 391.364, 984.7, 400.394,
				988.702);

		g.setPaint(new Color(0xFEF8EA));
		g.fill(shape);

		// _0_0_15
		shape = new GeneralPath();
		((GeneralPath) shape).moveTo(348.438, 718.09);
		((GeneralPath) shape).curveTo(354.051, 716.739, 358.83, 713.36, 363.634,
				710.606);
		((GeneralPath) shape).curveTo(373.127, 705.165, 382.47, 704.306,
				392.375, 708.035);
		((GeneralPath) shape).curveTo(394.448, 708.815, 396.239, 708.258,
				398.146, 708.436);
		((GeneralPath) shape).curveTo(404.826, 709.062, 410.25, 712.062,
				414.111, 717.365);
		((GeneralPath) shape).curveTo(415.997, 719.956, 417.157, 719.412,
				418.294, 717.353);
		((GeneralPath) shape).curveTo(421.233, 712.037, 426.124, 707.024,
				427.577, 701.982);
		((GeneralPath) shape).curveTo(429.579, 695.035, 434.759, 692.485,
				438.804, 688.475);
		((GeneralPath) shape).curveTo(443.092, 684.223, 448.206, 680.729,
				453.227, 677.191);
		((GeneralPath) shape).curveTo(458.612, 673.396, 464.506, 671.002,
				470.175, 668.129);
		((GeneralPath) shape).curveTo(479.588, 663.361, 489.481, 664.517,
				498.726, 668.929);
		((GeneralPath) shape).curveTo(502.695, 670.823, 506.93, 671.281,
				510.927, 672.826);
		((GeneralPath) shape).curveTo(514.754, 674.307, 517.836, 676.313,
				520.626, 679.337);
		((GeneralPath) shape).curveTo(527.338, 686.609, 532.692, 694.918,
				538.92, 702.551);
		((GeneralPath) shape).curveTo(540.7, 704.732, 542.216, 707.051, 541.577,
				710.194);
		((GeneralPath) shape).curveTo(541.269, 711.708, 542.013, 713.771,
				543.107, 714.145);
		((GeneralPath) shape).curveTo(547.582, 715.671, 546.808, 719.828,
				548.167, 723.174);
		((GeneralPath) shape).curveTo(546.816, 723.423, 545.486, 723.669,
				544.155, 723.915);
		((GeneralPath) shape).curveTo(542.984, 721.909, 543.635, 719.384,
				542.316, 717.42);
		((GeneralPath) shape).curveTo(543.659, 719.366, 542.811, 721.95,
				544.192, 723.885);
		((GeneralPath) shape).curveTo(545.039, 726.661, 545.407, 729.57,
				548.193, 731.486);
		((GeneralPath) shape).curveTo(549.25, 732.213, 549.572, 733.512,
				551.279, 732.577);
		((GeneralPath) shape).curveTo(552.101, 732.127, 553.18, 732.596,
				553.155, 734.003);
		((GeneralPath) shape).curveTo(553.11, 736.445, 551.88, 734.115, 551.54,
				734.42);
		((GeneralPath) shape).curveTo(550.27, 735.557, 548.025, 735.802, 549.07,
				738.772);
		((GeneralPath) shape).curveTo(551.14, 744.655, 552.593, 750.756,
				554.301, 756.768);
		((GeneralPath) shape).curveTo(555.639, 757.955, 554.586, 759.598,
				555.094, 760.943);
		((GeneralPath) shape).curveTo(557.7, 773.826, 559.701, 786.803, 561.112,
				799.871);
		((GeneralPath) shape).curveTo(550.519, 800.913, 540.963, 804.653,
				532.379, 810.918);
		((GeneralPath) shape).curveTo(527.683, 811.76, 523.048, 810.589,
				518.491, 810.007);
		((GeneralPath) shape).curveTo(506.626, 808.493, 494.541, 808.286,
				482.924, 805.308);
		((GeneralPath) shape).curveTo(474.15, 803.059, 465.074, 803.503,
				456.349, 801.395);
		((GeneralPath) shape).curveTo(455.881, 801.395, 455.41, 801.446,
				454.964, 801.574);
		((GeneralPath) shape).curveTo(453.397, 803.104, 454.629, 804.723,
				454.89, 806.248);
		((GeneralPath) shape).curveTo(455.846, 811.828, 457.645, 817.249,
				458.283, 822.884);
		((GeneralPath) shape).curveTo(458.829, 827.717, 457.556, 828.887,
				452.786, 828.439);
		((GeneralPath) shape).curveTo(449.659, 828.146, 446.835, 828.453,
				443.68, 829.58);
		((GeneralPath) shape).curveTo(439.031, 831.241, 433.845, 831.165,
				429.383, 827.97);
		((GeneralPath) shape).curveTo(425.404, 823.644, 424.707, 818.069,
				423.058, 812.717);
		((GeneralPath) shape).curveTo(419.375, 800.769, 413.501, 789.735,
				406.956, 779.083);
		((GeneralPath) shape).curveTo(391.86, 754.518, 372.445, 734.102,
				348.438, 718.09);

		g.setPaint(new Color(0xAAD874));
		g.fill(shape);

		// _0_0_16
		shape = new GeneralPath();
		((GeneralPath) shape).moveTo(836.963, 786.921);
		((GeneralPath) shape).curveTo(835.58, 789.287, 832.597, 789.002,
				830.695, 791.153);
		((GeneralPath) shape).curveTo(826.166, 796.273, 828.084, 802.105,
				827.82, 807.632);
		((GeneralPath) shape).curveTo(827.691, 810.342, 827.217, 813.042,
				827.313, 815.764);
		((GeneralPath) shape).curveTo(827.797, 818.176, 827.834, 820.585,
				827.291, 822.993);
		((GeneralPath) shape).curveTo(827.193, 824.634, 827.867, 826.135,
				827.871, 827.842);
		((GeneralPath) shape).curveTo(827.891, 838.14, 827.439, 838.38, 817.382,
				837.727);
		((GeneralPath) shape).curveTo(812.252, 837.393, 807.054, 837.046,
				801.828, 837.782);
		((GeneralPath) shape).curveTo(792.305, 839.122, 782.827, 836.329,
				773.279, 837.01);
		((GeneralPath) shape).curveTo(769.42, 837.874, 766.178, 837.526, 765.13,
				832.865);
		((GeneralPath) shape).curveTo(765.188, 825.433, 764.756, 817.976,
				765.851, 810.588);
		((GeneralPath) shape).curveTo(766.745, 804.553, 767.388, 799.196,
				760.988, 794.918);
		((GeneralPath) shape).curveTo(755.244, 791.078, 750.349, 785.938,
				745.395, 780.922);
		((GeneralPath) shape).curveTo(740.379, 775.844, 735.258, 770.951,
				730.926, 765.24);
		((GeneralPath) shape).curveTo(728.643, 762.231, 727.261, 759.219,
				729.728, 755.736);
		((GeneralPath) shape).curveTo(732.273, 752.142, 735.958, 752.326,
				739.647, 753.16);
		((GeneralPath) shape).curveTo(743.375, 754.003, 746.192, 757.115,
				750.526, 757.61);
		((GeneralPath) shape).curveTo(748.559, 750.313, 748.531, 743.053,
				749.995, 735.784);
		((GeneralPath) shape).curveTo(751.996, 734.247, 751.195, 731.735,
				752.075, 729.808);
		((GeneralPath) shape).curveTo(754.37, 726.396, 755.723, 722.421,
				758.787, 719.436);
		((GeneralPath) shape).curveTo(760.469, 717.798, 760.727, 715.637,
				759.812, 713.08);
		((GeneralPath) shape).curveTo(755.733, 701.679, 751.939, 690.176,
				748.023, 678.716);
		((GeneralPath) shape).curveTo(744.846, 669.419, 752.259, 654.169,
				761.22, 651.609);
		((GeneralPath) shape).curveTo(764.798, 650.587, 772.545, 654.557,
				775.132, 658.981);
		((GeneralPath) shape).curveTo(778.907, 665.439, 781.365, 672.325,
				782.381, 679.833);
		((GeneralPath) shape).curveTo(783.36, 687.072, 785.95, 694.069, 786.03,
				701.465);
		((GeneralPath) shape).curveTo(786.057, 703.959, 788.019, 703.721,
				789.124, 703.478);
		((GeneralPath) shape).curveTo(794.098, 702.388, 799.052, 702.578,
				803.929, 703.572);
		((GeneralPath) shape).curveTo(806.632, 704.123, 807.033, 703.128,
				807.24, 700.874);
		((GeneralPath) shape).curveTo(808.296, 689.347, 810.288, 677.954,
				814.281, 667.086);
		((GeneralPath) shape).curveTo(816.462, 661.151, 820.088, 655.901,
				825.926, 652.638);
		((GeneralPath) shape).curveTo(827.375, 651.828, 828.652, 651.633,
				830.146, 652.386);
		((GeneralPath) shape).curveTo(831.777, 653.209, 833.403, 654.185,
				835.15, 654.613);
		((GeneralPath) shape).curveTo(841.76, 656.235, 843.29, 660.877, 844.369,
				667.044);
		((GeneralPath) shape).curveTo(846.251, 677.804, 844.008, 687.816,
				841.155, 697.914);
		((GeneralPath) shape).curveTo(840.575, 698.466, 839.878, 698.951,
				840.015, 699.912);
		((GeneralPath) shape).curveTo(840.09, 700.227, 840.119, 700.546,
				840.101, 700.87);
		((GeneralPath) shape).curveTo(837.974, 702.376, 837.777, 705.134,
				836.148, 706.963);
		((GeneralPath) shape).curveTo(833.71, 709.276, 833.72, 712.663, 832.45,
				715.491);
		((GeneralPath) shape).curveTo(831.735, 717.082, 833.297, 717.709,
				834.232, 718.631);
		((GeneralPath) shape).curveTo(839.733, 724.058, 843.835, 730.29,
				845.711, 737.939);
		((GeneralPath) shape).curveTo(846.834, 742.522, 845.401, 746.747,
				844.469, 751.428);
		((GeneralPath) shape).curveTo(846.474, 751.68, 847.612, 750.346,
				848.987, 749.637);
		((GeneralPath) shape).curveTo(850.902, 748.649, 852.81, 747.6, 854.827,
				746.868);
		((GeneralPath) shape).curveTo(857.783, 745.796, 860.966, 744.532,
				863.743, 747.059);
		((GeneralPath) shape).curveTo(866.367, 749.446, 864.619, 752.326,
				864.091, 755.017);
		((GeneralPath) shape).curveTo(859.197, 756.399, 854.122, 757.071,
				849.415, 759.201);
		((GeneralPath) shape).curveTo(837.078, 764.784, 832.871, 774.023,
				836.963, 786.921);

		g.setPaint(new Color(0xFFC7BF));
		g.fill(shape);

		// _0_0_17
		shape = new GeneralPath();
		((GeneralPath) shape).moveTo(658.316, 421.898);
		((GeneralPath) shape).curveTo(664.197, 412.18, 670.818, 403.149,
				680.117, 396.278);
		((GeneralPath) shape).curveTo(705.403, 377.595, 737.103, 382.87,
				755.131, 408.857);
		((GeneralPath) shape).curveTo(762.962, 420.147, 768.378, 432.546,
				768.768, 446.263);
		((GeneralPath) shape).curveTo(769.112, 458.359, 764.322, 469.195,
				756.704, 478.752);
		((GeneralPath) shape).curveTo(747.675, 490.077, 737.331, 499.356,
				722.444, 501.825);
		((GeneralPath) shape).curveTo(707.831, 504.249, 694.178, 500.442,
				680.837, 494.949);
		((GeneralPath) shape).curveTo(671.334, 476.98, 665.635, 457.691, 661.21,
				437.981);
		((GeneralPath) shape).curveTo(660.018, 432.671, 659.269, 427.261,
				658.316, 421.898);

		g.setPaint(new Color(0xFFD5BA));
		g.fill(shape);

		// _0_0_18
		shape = new GeneralPath();
		((GeneralPath) shape).moveTo(1131.12, 498.845);
		((GeneralPath) shape).curveTo(1125.04, 499.161, 1119.52, 501.964,
				1113.31, 502.246);
		((GeneralPath) shape).curveTo(1096.78, 502.997, 1081.64, 499.09,
				1068.35, 489.44);
		((GeneralPath) shape).curveTo(1057.78, 481.761, 1051.15, 471.05,
				1048.74, 458.091);
		((GeneralPath) shape).curveTo(1046.87, 448.054, 1048.35, 438.263,
				1052.01, 428.782);
		((GeneralPath) shape).curveTo(1060.16, 407.684, 1074.17, 392.608,
				1096.54, 386.745);
		((GeneralPath) shape).curveTo(1116.47, 381.521, 1138.1, 390.041,
				1149.86, 407.112);
		((GeneralPath) shape).curveTo(1151.92, 410.109, 1154.08, 413.045,
				1156.19, 416.009);
		((GeneralPath) shape).curveTo(1153.43, 440.785, 1146.6, 464.458,
				1136.78, 487.304);
		((GeneralPath) shape).curveTo(1135.09, 491.236, 1133.01, 495.002,
